<?xml version="1.0" encoding="ISO-8859-1"?>
<!-- This network was created in GeNIe Academic, which can be used for educational and research purposes only -->
<smile version="1.0" id="Unnamed" numsamples="10000" discsamples="10000">
	<nodes>
		<cpt id="Visit_Hits">
			<state id="s01_below_1" />
			<state id="s02_1_2" />
			<state id="s03_2_3" />
			<state id="s04_3_5" />
			<state id="s05_5_6" />
			<state id="s06_6_7" />
			<state id="s07_7_8" />
			<state id="s08_8_10" />
			<state id="s09_10_11" />
			<state id="s10_11_12" />
			<state id="s11_12_13" />
			<state id="s12_13_15" />
			<state id="s13_15_16" />
			<state id="s14_16_17" />
			<state id="s15_17_18" />
			<state id="s16_18_20" />
			<state id="s17_20_21" />
			<state id="s18_21_22" />
			<state id="s19_22_23" />
			<state id="s20_23_up" />
			<probabilities>0.35 0.01666666666666667 0.01666666666666667 0.01666666666666667 0.35 0.01666666666666667 0.01666666666666667 0.01666666666666667 0.01666666666666667 0.01666666666666667 0.01666666666666667 0.01666666666666667 0.01666666666666667 0.01666666666666667 0.01666666666666667 0.01666666666666667 0.01666666666666667 0.01666666666666667 0.01666666666666667 0.01666666666666667</probabilities>
		</cpt>
		<cpt id="Visit_Bats">
			<state id="s01_below_25" />
			<state id="s02_25_27" />
			<state id="s03_27_29" />
			<state id="s04_29_31" />
			<state id="s05_31_34" />
			<state id="s06_34_36" />
			<state id="s07_36_38" />
			<state id="s08_38_40" />
			<state id="s09_40_42" />
			<state id="s10_42_45" />
			<state id="s11_45_47" />
			<state id="s12_47_49" />
			<state id="s13_49_51" />
			<state id="s14_51_53" />
			<state id="s15_53_56" />
			<state id="s16_56_58" />
			<state id="s17_58_60" />
			<state id="s18_60_62" />
			<state id="s19_62_64" />
			<state id="s20_64_up" />
			<probabilities>0.0008432743726861375 0.00619086795557384 0.05061703002879474 0.129185520361991 0.236137392019745 0.299074454956808 0.1205470999588647 0.07118469765528591 0.04156725627313863 0.02264500205676677 0.01318387494858083 0.002077334430275607 0.002077334430275607 2.056766762649116e-05 0.001254627725215961 0.0008432743726861375 0.0004319210201563144 0.0008432743726861375 0.0004319210201563144 0.0008432743726861375</probabilities>
		</cpt>
		<cpt id="Visiting_Score">
			<state id="s01_below_1" />
			<state id="s02_1_2" />
			<state id="s03_2_3" />
			<state id="s04_3_4" />
			<state id="s05_4_5" />
			<state id="s06_5_6" />
			<state id="s07_6_7" />
			<state id="s08_7_8" />
			<state id="s09_8_9" />
			<state id="s10_9_11" />
			<state id="s11_11_12" />
			<state id="s12_12_13" />
			<state id="s13_13_14" />
			<state id="s14_14_15" />
			<state id="s15_15_16" />
			<state id="s16_16_17" />
			<state id="s17_17_18" />
			<state id="s18_18_19" />
			<state id="s19_19_20" />
			<state id="s20_20_up" />
			<parents>Visit_Hits Visit_Bats</parents>
			<probabilities>0.913636363636364 0.004545454545454547 0.004545454545454547 0.004545454545454547 0.004545454545454547 0.004545454545454547 0.004545454545454547 0.004545454545454547 0.004545454545454547 0.004545454545454547 0.004545454545454547 0.004545454545454547 0.004545454545454547 0.004545454545454547 0.004545454545454547 0.004545454545454547 0.004545454545454547 0.004545454545454547 0.004545454545454547 0.004545454545454547 0.913636363636364 0.004545454545454547 0.004545454545454547 0.004545454545454547 0.004545454545454547 0.004545454545454547 0.004545454545454547 0.004545454545454547 0.004545454545454547 0.004545454545454547 0.004545454545454547 0.004545454545454547 0.004545454545454547 0.004545454545454547 0.004545454545454547 0.004545454545454547 0.004545454545454547 0.004545454545454547 0.004545454545454547 0.004545454545454547 0.913636363636364 0.004545454545454547 0.004545454545454547 0.004545454545454547 0.004545454545454547 0.004545454545454547 0.004545454545454547 0.004545454545454547 0.004545454545454547 0.004545454545454547 0.004545454545454547 0.004545454545454547 0.004545454545454547 0.004545454545454547 0.004545454545454547 0.004545454545454547 0.004545454545454547 0.004545454545454547 0.004545454545454547 0.004545454545454547 0.913636363636364 0.004545454545454547 0.004545454545454547 0.004545454545454547 0.004545454545454547 0.004545454545454547 0.004545454545454547 0.004545454545454547 0.004545454545454547 0.004545454545454547 0.004545454545454547 0.004545454545454547 0.004545454545454547 0.004545454545454547 0.004545454545454547 0.004545454545454547 0.004545454545454547 0.004545454545454547 0.004545454545454547 0.004545454545454547 0.913636363636364 0.004545454545454547 0.004545454545454547 0.004545454545454547 0.004545454545454547 0.004545454545454547 0.004545454545454547 0.004545454545454547 0.004545454545454547 0.004545454545454547 0.004545454545454547 0.004545454545454547 0.004545454545454547 0.004545454545454547 0.004545454545454547 0.004545454545454547 0.004545454545454547 0.004545454545454547 0.004545454545454547 0.004545454545454547 0.913636363636364 0.004545454545454547 0.004545454545454547 0.004545454545454547 0.004545454545454547 0.004545454545454547 0.004545454545454547 0.004545454545454547 0.004545454545454547 0.004545454545454547 0.004545454545454547 0.004545454545454547 0.004545454545454547 0.004545454545454547 0.004545454545454547 0.004545454545454547 0.004545454545454547 0.004545454545454547 0.004545454545454547 0.004545454545454547 0.913636363636364 0.004545454545454547 0.004545454545454547 0.004545454545454547 0.004545454545454547 0.004545454545454547 0.004545454545454547 0.004545454545454547 0.004545454545454547 0.004545454545454547 0.004545454545454547 0.004545454545454547 0.004545454545454547 0.004545454545454547 0.004545454545454547 0.004545454545454547 0.004545454545454547 0.004545454545454547 0.004545454545454547 0.004545454545454547 0.913636363636364 0.004545454545454547 0.004545454545454547 0.004545454545454547 0.004545454545454547 0.004545454545454547 0.004545454545454547 0.004545454545454547 0.004545454545454547 0.004545454545454547 0.004545454545454547 0.004545454545454547 0.004545454545454547 0.004545454545454547 0.004545454545454547 0.004545454545454547 0.004545454545454547 0.004545454545454547 0.004545454545454547 0.004545454545454547 0.913636363636364 0.004545454545454547 0.004545454545454547 0.004545454545454547 0.004545454545454547 0.004545454545454547 0.004545454545454547 0.004545454545454547 0.004545454545454547 0.004545454545454547 0.004545454545454547 0.004545454545454547 0.004545454545454547 0.004545454545454547 0.004545454545454547 0.004545454545454547 0.004545454545454547 0.004545454545454547 0.004545454545454547 0.004545454545454547 0.913636363636364 0.004545454545454547 0.004545454545454547 0.004545454545454547 0.004545454545454547 0.004545454545454547 0.004545454545454547 0.004545454545454547 0.004545454545454547 0.004545454545454547 0.004545454545454547 0.004545454545454547 0.004545454545454547 0.004545454545454547 0.004545454545454547 0.004545454545454547 0.004545454545454547 0.004545454545454547 0.004545454545454547 0.004545454545454547 0.913636363636364 0.004545454545454547 0.004545454545454547 0.004545454545454547 0.004545454545454547 0.004545454545454547 0.004545454545454547 0.004545454545454547 0.004545454545454547 0.004545454545454547 0.004545454545454547 0.004545454545454547 0.004545454545454547 0.004545454545454547 0.004545454545454547 0.004545454545454547 0.004545454545454547 0.004545454545454547 0.004545454545454547 0.004545454545454547 0.913636363636364 0.004545454545454547 0.004545454545454547 0.004545454545454547 0.004545454545454547 0.004545454545454547 0.004545454545454547 0.004545454545454547 0.004545454545454547 0.004545454545454547 0.004545454545454547 0.004545454545454547 0.004545454545454547 0.004545454545454547 0.004545454545454547 0.004545454545454547 0.004545454545454547 0.004545454545454547 0.004545454545454547 0.004545454545454547 0.913636363636364 0.004545454545454547 0.004545454545454547 0.004545454545454547 0.004545454545454547 0.004545454545454547 0.004545454545454547 0.004545454545454547 0.004545454545454547 0.004545454545454547 0.004545454545454547 0.004545454545454547 0.004545454545454547 0.004545454545454547 0.004545454545454547 0.004545454545454547 0.004545454545454547 0.004545454545454547 0.004545454545454547 0.004545454545454547 0.913636363636364 0.004545454545454547 0.004545454545454547 0.004545454545454547 0.004545454545454547 0.004545454545454547 0.004545454545454547 0.004545454545454547 0.004545454545454547 0.004545454545454547 0.004545454545454547 0.004545454545454547 0.004545454545454547 0.004545454545454547 0.004545454545454547 0.004545454545454547 0.004545454545454547 0.004545454545454547 0.004545454545454547 0.004545454545454547 0.913636363636364 0.004545454545454547 0.004545454545454547 0.004545454545454547 0.004545454545454547 0.004545454545454547 0.004545454545454547 0.004545454545454547 0.004545454545454547 0.004545454545454547 0.004545454545454547 0.004545454545454547 0.004545454545454547 0.004545454545454547 0.004545454545454547 0.004545454545454547 0.004545454545454547 0.004545454545454547 0.004545454545454547 0.004545454545454547 0.913636363636364 0.004545454545454547 0.004545454545454547 0.004545454545454547 0.004545454545454547 0.004545454545454547 0.004545454545454547 0.004545454545454547 0.004545454545454547 0.004545454545454547 0.004545454545454547 0.004545454545454547 0.004545454545454547 0.004545454545454547 0.004545454545454547 0.004545454545454547 0.004545454545454547 0.004545454545454547 0.004545454545454547 0.004545454545454547 0.913636363636364 0.004545454545454547 0.004545454545454547 0.004545454545454547 0.004545454545454547 0.004545454545454547 0.004545454545454547 0.004545454545454547 0.004545454545454547 0.004545454545454547 0.004545454545454547 0.004545454545454547 0.004545454545454547 0.004545454545454547 0.004545454545454547 0.004545454545454547 0.004545454545454547 0.004545454545454547 0.004545454545454547 0.004545454545454547 0.913636363636364 0.004545454545454547 0.004545454545454547 0.004545454545454547 0.004545454545454547 0.004545454545454547 0.004545454545454547 0.004545454545454547 0.004545454545454547 0.004545454545454547 0.004545454545454547 0.004545454545454547 0.004545454545454547 0.004545454545454547 0.004545454545454547 0.004545454545454547 0.004545454545454547 0.004545454545454547 0.004545454545454547 0.004545454545454547 0.913636363636364 0.004545454545454547 0.004545454545454547 0.004545454545454547 0.004545454545454547 0.004545454545454547 0.004545454545454547 0.004545454545454547 0.004545454545454547 0.004545454545454547 0.004545454545454547 0.004545454545454547 0.004545454545454547 0.004545454545454547 0.004545454545454547 0.004545454545454547 0.004545454545454547 0.004545454545454547 0.004545454545454547 0.004545454545454547 0.913636363636364 0.004545454545454547 0.004545454545454547 0.004545454545454547 0.004545454545454547 0.004545454545454547 0.004545454545454547 0.004545454545454547 0.004545454545454547 0.004545454545454547 0.004545454545454547 0.004545454545454547 0.004545454545454547 0.004545454545454547 0.004545454545454547 0.004545454545454547 0.004545454545454547 0.004545454545454547 0.004545454545454547 0.004545454545454547 0.7796296296296292 0.1499999999999999 0.03888888888888888 0.001851851851851851 0.001851851851851851 0.001851851851851851 0.001851851851851851 0.001851851851851851 0.001851851851851851 0.001851851851851851 0.001851851851851851 0.001851851851851851 0.001851851851851851 0.001851851851851851 0.001851851851851851 0.001851851851851851 0.001851851851851851 0.001851851851851851 0.001851851851851851 0.001851851851851851 0.7796296296296292 0.1499999999999999 0.03888888888888888 0.001851851851851851 0.001851851851851851 0.001851851851851851 0.001851851851851851 0.001851851851851851 0.001851851851851851 0.001851851851851851 0.001851851851851851 0.001851851851851851 0.001851851851851851 0.001851851851851851 0.001851851851851851 0.001851851851851851 0.001851851851851851 0.001851851851851851 0.001851851851851851 0.001851851851851851 0.7796296296296292 0.1499999999999999 0.03888888888888888 0.001851851851851851 0.001851851851851851 0.001851851851851851 0.001851851851851851 0.001851851851851851 0.001851851851851851 0.001851851851851851 0.001851851851851851 0.001851851851851851 0.001851851851851851 0.001851851851851851 0.001851851851851851 0.001851851851851851 0.001851851851851851 0.001851851851851851 0.001851851851851851 0.001851851851851851 0.7796296296296292 0.1499999999999999 0.03888888888888888 0.001851851851851851 0.001851851851851851 0.001851851851851851 0.001851851851851851 0.001851851851851851 0.001851851851851851 0.001851851851851851 0.001851851851851851 0.001851851851851851 0.001851851851851851 0.001851851851851851 0.001851851851851851 0.001851851851851851 0.001851851851851851 0.001851851851851851 0.001851851851851851 0.001851851851851851 0.7796296296296292 0.1499999999999999 0.03888888888888888 0.001851851851851851 0.001851851851851851 0.001851851851851851 0.001851851851851851 0.001851851851851851 0.001851851851851851 0.001851851851851851 0.001851851851851851 0.001851851851851851 0.001851851851851851 0.001851851851851851 0.001851851851851851 0.001851851851851851 0.001851851851851851 0.001851851851851851 0.001851851851851851 0.001851851851851851 0.7796296296296292 0.1499999999999999 0.03888888888888888 0.001851851851851851 0.001851851851851851 0.001851851851851851 0.001851851851851851 0.001851851851851851 0.001851851851851851 0.001851851851851851 0.001851851851851851 0.001851851851851851 0.001851851851851851 0.001851851851851851 0.001851851851851851 0.001851851851851851 0.001851851851851851 0.001851851851851851 0.001851851851851851 0.001851851851851851 0.7796296296296292 0.1499999999999999 0.03888888888888888 0.001851851851851851 0.001851851851851851 0.001851851851851851 0.001851851851851851 0.001851851851851851 0.001851851851851851 0.001851851851851851 0.001851851851851851 0.001851851851851851 0.001851851851851851 0.001851851851851851 0.001851851851851851 0.001851851851851851 0.001851851851851851 0.001851851851851851 0.001851851851851851 0.001851851851851851 0.7796296296296292 0.1499999999999999 0.03888888888888888 0.001851851851851851 0.001851851851851851 0.001851851851851851 0.001851851851851851 0.001851851851851851 0.001851851851851851 0.001851851851851851 0.001851851851851851 0.001851851851851851 0.001851851851851851 0.001851851851851851 0.001851851851851851 0.001851851851851851 0.001851851851851851 0.001851851851851851 0.001851851851851851 0.001851851851851851 0.7796296296296292 0.1499999999999999 0.03888888888888888 0.001851851851851851 0.001851851851851851 0.001851851851851851 0.001851851851851851 0.001851851851851851 0.001851851851851851 0.001851851851851851 0.001851851851851851 0.001851851851851851 0.001851851851851851 0.001851851851851851 0.001851851851851851 0.001851851851851851 0.001851851851851851 0.001851851851851851 0.001851851851851851 0.001851851851851851 0.7796296296296292 0.1499999999999999 0.03888888888888888 0.001851851851851851 0.001851851851851851 0.001851851851851851 0.001851851851851851 0.001851851851851851 0.001851851851851851 0.001851851851851851 0.001851851851851851 0.001851851851851851 0.001851851851851851 0.001851851851851851 0.001851851851851851 0.001851851851851851 0.001851851851851851 0.001851851851851851 0.001851851851851851 0.001851851851851851 0.7796296296296292 0.1499999999999999 0.03888888888888888 0.001851851851851851 0.001851851851851851 0.001851851851851851 0.001851851851851851 0.001851851851851851 0.001851851851851851 0.001851851851851851 0.001851851851851851 0.001851851851851851 0.001851851851851851 0.001851851851851851 0.001851851851851851 0.001851851851851851 0.001851851851851851 0.001851851851851851 0.001851851851851851 0.001851851851851851 0.7796296296296292 0.1499999999999999 0.03888888888888888 0.001851851851851851 0.001851851851851851 0.001851851851851851 0.001851851851851851 0.001851851851851851 0.001851851851851851 0.001851851851851851 0.001851851851851851 0.001851851851851851 0.001851851851851851 0.001851851851851851 0.001851851851851851 0.001851851851851851 0.001851851851851851 0.001851851851851851 0.001851851851851851 0.001851851851851851 0.7796296296296292 0.1499999999999999 0.03888888888888888 0.001851851851851851 0.001851851851851851 0.001851851851851851 0.001851851851851851 0.001851851851851851 0.001851851851851851 0.001851851851851851 0.001851851851851851 0.001851851851851851 0.001851851851851851 0.001851851851851851 0.001851851851851851 0.001851851851851851 0.001851851851851851 0.001851851851851851 0.001851851851851851 0.001851851851851851 0.7796296296296292 0.1499999999999999 0.03888888888888888 0.001851851851851851 0.001851851851851851 0.001851851851851851 0.001851851851851851 0.001851851851851851 0.001851851851851851 0.001851851851851851 0.001851851851851851 0.001851851851851851 0.001851851851851851 0.001851851851851851 0.001851851851851851 0.001851851851851851 0.001851851851851851 0.001851851851851851 0.001851851851851851 0.001851851851851851 0.7796296296296292 0.1499999999999999 0.03888888888888888 0.001851851851851851 0.001851851851851851 0.001851851851851851 0.001851851851851851 0.001851851851851851 0.001851851851851851 0.001851851851851851 0.001851851851851851 0.001851851851851851 0.001851851851851851 0.001851851851851851 0.001851851851851851 0.001851851851851851 0.001851851851851851 0.001851851851851851 0.001851851851851851 0.001851851851851851 0.7796296296296292 0.1499999999999999 0.03888888888888888 0.001851851851851851 0.001851851851851851 0.001851851851851851 0.001851851851851851 0.001851851851851851 0.001851851851851851 0.001851851851851851 0.001851851851851851 0.001851851851851851 0.001851851851851851 0.001851851851851851 0.001851851851851851 0.001851851851851851 0.001851851851851851 0.001851851851851851 0.001851851851851851 0.001851851851851851 0.7796296296296292 0.1499999999999999 0.03888888888888888 0.001851851851851851 0.001851851851851851 0.001851851851851851 0.001851851851851851 0.001851851851851851 0.001851851851851851 0.001851851851851851 0.001851851851851851 0.001851851851851851 0.001851851851851851 0.001851851851851851 0.001851851851851851 0.001851851851851851 0.001851851851851851 0.001851851851851851 0.001851851851851851 0.001851851851851851 0.7796296296296292 0.1499999999999999 0.03888888888888888 0.001851851851851851 0.001851851851851851 0.001851851851851851 0.001851851851851851 0.001851851851851851 0.001851851851851851 0.001851851851851851 0.001851851851851851 0.001851851851851851 0.001851851851851851 0.001851851851851851 0.001851851851851851 0.001851851851851851 0.001851851851851851 0.001851851851851851 0.001851851851851851 0.001851851851851851 0.7796296296296292 0.1499999999999999 0.03888888888888888 0.001851851851851851 0.001851851851851851 0.001851851851851851 0.001851851851851851 0.001851851851851851 0.001851851851851851 0.001851851851851851 0.001851851851851851 0.001851851851851851 0.001851851851851851 0.001851851851851851 0.001851851851851851 0.001851851851851851 0.001851851851851851 0.001851851851851851 0.001851851851851851 0.001851851851851851 0.7796296296296292 0.1499999999999999 0.03888888888888888 0.001851851851851851 0.001851851851851851 0.001851851851851851 0.001851851851851851 0.001851851851851851 0.001851851851851851 0.001851851851851851 0.001851851851851851 0.001851851851851851 0.001851851851851851 0.001851851851851851 0.001851851851851851 0.001851851851851851 0.001851851851851851 0.001851851851851851 0.001851851851851851 0.001851851851851851 0.6791666666666667 0.2386904761904762 0.06011904761904762 0.0125 0.0005952380952380953 0.0005952380952380953 0.0005952380952380953 0.0005952380952380953 0.0005952380952380953 0.0005952380952380953 0.0005952380952380953 0.0005952380952380953 0.0005952380952380953 0.0005952380952380953 0.0005952380952380953 0.0005952380952380953 0.0005952380952380953 0.0005952380952380953 0.0005952380952380953 0.0005952380952380953 0.6791666666666667 0.2386904761904762 0.06011904761904762 0.0125 0.0005952380952380953 0.0005952380952380953 0.0005952380952380953 0.0005952380952380953 0.0005952380952380953 0.0005952380952380953 0.0005952380952380953 0.0005952380952380953 0.0005952380952380953 0.0005952380952380953 0.0005952380952380953 0.0005952380952380953 0.0005952380952380953 0.0005952380952380953 0.0005952380952380953 0.0005952380952380953 0.6791666666666667 0.2386904761904762 0.06011904761904762 0.0125 0.0005952380952380953 0.0005952380952380953 0.0005952380952380953 0.0005952380952380953 0.0005952380952380953 0.0005952380952380953 0.0005952380952380953 0.0005952380952380953 0.0005952380952380953 0.0005952380952380953 0.0005952380952380953 0.0005952380952380953 0.0005952380952380953 0.0005952380952380953 0.0005952380952380953 0.0005952380952380953 0.6791666666666667 0.2386904761904762 0.06011904761904762 0.0125 0.0005952380952380953 0.0005952380952380953 0.0005952380952380953 0.0005952380952380953 0.0005952380952380953 0.0005952380952380953 0.0005952380952380953 0.0005952380952380953 0.0005952380952380953 0.0005952380952380953 0.0005952380952380953 0.0005952380952380953 0.0005952380952380953 0.0005952380952380953 0.0005952380952380953 0.0005952380952380953 0.6791666666666667 0.2386904761904762 0.06011904761904762 0.0125 0.0005952380952380953 0.0005952380952380953 0.0005952380952380953 0.0005952380952380953 0.0005952380952380953 0.0005952380952380953 0.0005952380952380953 0.0005952380952380953 0.0005952380952380953 0.0005952380952380953 0.0005952380952380953 0.0005952380952380953 0.0005952380952380953 0.0005952380952380953 0.0005952380952380953 0.0005952380952380953 0.6791666666666667 0.2386904761904762 0.06011904761904762 0.0125 0.0005952380952380953 0.0005952380952380953 0.0005952380952380953 0.0005952380952380953 0.0005952380952380953 0.0005952380952380953 0.0005952380952380953 0.0005952380952380953 0.0005952380952380953 0.0005952380952380953 0.0005952380952380953 0.0005952380952380953 0.0005952380952380953 0.0005952380952380953 0.0005952380952380953 0.0005952380952380953 0.6791666666666667 0.2386904761904762 0.06011904761904762 0.0125 0.0005952380952380953 0.0005952380952380953 0.0005952380952380953 0.0005952380952380953 0.0005952380952380953 0.0005952380952380953 0.0005952380952380953 0.0005952380952380953 0.0005952380952380953 0.0005952380952380953 0.0005952380952380953 0.0005952380952380953 0.0005952380952380953 0.0005952380952380953 0.0005952380952380953 0.0005952380952380953 0.6791666666666667 0.2386904761904762 0.06011904761904762 0.0125 0.0005952380952380953 0.0005952380952380953 0.0005952380952380953 0.0005952380952380953 0.0005952380952380953 0.0005952380952380953 0.0005952380952380953 0.0005952380952380953 0.0005952380952380953 0.0005952380952380953 0.0005952380952380953 0.0005952380952380953 0.0005952380952380953 0.0005952380952380953 0.0005952380952380953 0.0005952380952380953 0.6791666666666667 0.2386904761904762 0.06011904761904762 0.0125 0.0005952380952380953 0.0005952380952380953 0.0005952380952380953 0.0005952380952380953 0.0005952380952380953 0.0005952380952380953 0.0005952380952380953 0.0005952380952380953 0.0005952380952380953 0.0005952380952380953 0.0005952380952380953 0.0005952380952380953 0.0005952380952380953 0.0005952380952380953 0.0005952380952380953 0.0005952380952380953 0.6791666666666667 0.2386904761904762 0.06011904761904762 0.0125 0.0005952380952380953 0.0005952380952380953 0.0005952380952380953 0.0005952380952380953 0.0005952380952380953 0.0005952380952380953 0.0005952380952380953 0.0005952380952380953 0.0005952380952380953 0.0005952380952380953 0.0005952380952380953 0.0005952380952380953 0.0005952380952380953 0.0005952380952380953 0.0005952380952380953 0.0005952380952380953 0.6791666666666667 0.2386904761904762 0.06011904761904762 0.0125 0.0005952380952380953 0.0005952380952380953 0.0005952380952380953 0.0005952380952380953 0.0005952380952380953 0.0005952380952380953 0.0005952380952380953 0.0005952380952380953 0.0005952380952380953 0.0005952380952380953 0.0005952380952380953 0.0005952380952380953 0.0005952380952380953 0.0005952380952380953 0.0005952380952380953 0.0005952380952380953 0.6791666666666667 0.2386904761904762 0.06011904761904762 0.0125 0.0005952380952380953 0.0005952380952380953 0.0005952380952380953 0.0005952380952380953 0.0005952380952380953 0.0005952380952380953 0.0005952380952380953 0.0005952380952380953 0.0005952380952380953 0.0005952380952380953 0.0005952380952380953 0.0005952380952380953 0.0005952380952380953 0.0005952380952380953 0.0005952380952380953 0.0005952380952380953 0.6791666666666667 0.2386904761904762 0.06011904761904762 0.0125 0.0005952380952380953 0.0005952380952380953 0.0005952380952380953 0.0005952380952380953 0.0005952380952380953 0.0005952380952380953 0.0005952380952380953 0.0005952380952380953 0.0005952380952380953 0.0005952380952380953 0.0005952380952380953 0.0005952380952380953 0.0005952380952380953 0.0005952380952380953 0.0005952380952380953 0.0005952380952380953 0.6791666666666667 0.2386904761904762 0.06011904761904762 0.0125 0.0005952380952380953 0.0005952380952380953 0.0005952380952380953 0.0005952380952380953 0.0005952380952380953 0.0005952380952380953 0.0005952380952380953 0.0005952380952380953 0.0005952380952380953 0.0005952380952380953 0.0005952380952380953 0.0005952380952380953 0.0005952380952380953 0.0005952380952380953 0.0005952380952380953 0.0005952380952380953 0.6791666666666667 0.2386904761904762 0.06011904761904762 0.0125 0.0005952380952380953 0.0005952380952380953 0.0005952380952380953 0.0005952380952380953 0.0005952380952380953 0.0005952380952380953 0.0005952380952380953 0.0005952380952380953 0.0005952380952380953 0.0005952380952380953 0.0005952380952380953 0.0005952380952380953 0.0005952380952380953 0.0005952380952380953 0.0005952380952380953 0.0005952380952380953 0.6791666666666667 0.2386904761904762 0.06011904761904762 0.0125 0.0005952380952380953 0.0005952380952380953 0.0005952380952380953 0.0005952380952380953 0.0005952380952380953 0.0005952380952380953 0.0005952380952380953 0.0005952380952380953 0.0005952380952380953 0.0005952380952380953 0.0005952380952380953 0.0005952380952380953 0.0005952380952380953 0.0005952380952380953 0.0005952380952380953 0.0005952380952380953 0.6791666666666667 0.2386904761904762 0.06011904761904762 0.0125 0.0005952380952380953 0.0005952380952380953 0.0005952380952380953 0.0005952380952380953 0.0005952380952380953 0.0005952380952380953 0.0005952380952380953 0.0005952380952380953 0.0005952380952380953 0.0005952380952380953 0.0005952380952380953 0.0005952380952380953 0.0005952380952380953 0.0005952380952380953 0.0005952380952380953 0.0005952380952380953 0.6791666666666667 0.2386904761904762 0.06011904761904762 0.0125 0.0005952380952380953 0.0005952380952380953 0.0005952380952380953 0.0005952380952380953 0.0005952380952380953 0.0005952380952380953 0.0005952380952380953 0.0005952380952380953 0.0005952380952380953 0.0005952380952380953 0.0005952380952380953 0.0005952380952380953 0.0005952380952380953 0.0005952380952380953 0.0005952380952380953 0.0005952380952380953 0.6791666666666667 0.2386904761904762 0.06011904761904762 0.0125 0.0005952380952380953 0.0005952380952380953 0.0005952380952380953 0.0005952380952380953 0.0005952380952380953 0.0005952380952380953 0.0005952380952380953 0.0005952380952380953 0.0005952380952380953 0.0005952380952380953 0.0005952380952380953 0.0005952380952380953 0.0005952380952380953 0.0005952380952380953 0.0005952380952380953 0.0005952380952380953 0.6791666666666667 0.2386904761904762 0.06011904761904762 0.0125 0.0005952380952380953 0.0005952380952380953 0.0005952380952380953 0.0005952380952380953 0.0005952380952380953 0.0005952380952380953 0.0005952380952380953 0.0005952380952380953 0.0005952380952380953 0.0005952380952380953 0.0005952380952380953 0.0005952380952380953 0.0005952380952380953 0.0005952380952380953 0.0005952380952380953 0.0005952380952380953 0.6077777777777779 0.1855555555555556 0.1188888888888889 0.04481481481481482 0.03740740740740742 0.0003703703703703705 0.0003703703703703705 0.0003703703703703705 0.0003703703703703705 0.0003703703703703705 0.0003703703703703705 0.0003703703703703705 0.0003703703703703705 0.0003703703703703705 0.0003703703703703705 0.0003703703703703705 0.0003703703703703705 0.0003703703703703705 0.0003703703703703705 0.0003703703703703705 0.6077777777777779 0.1855555555555556 0.1188888888888889 0.04481481481481482 0.03740740740740742 0.0003703703703703705 0.0003703703703703705 0.0003703703703703705 0.0003703703703703705 0.0003703703703703705 0.0003703703703703705 0.0003703703703703705 0.0003703703703703705 0.0003703703703703705 0.0003703703703703705 0.0003703703703703705 0.0003703703703703705 0.0003703703703703705 0.0003703703703703705 0.0003703703703703705 0.6077777777777779 0.1855555555555556 0.1188888888888889 0.04481481481481482 0.03740740740740742 0.0003703703703703705 0.0003703703703703705 0.0003703703703703705 0.0003703703703703705 0.0003703703703703705 0.0003703703703703705 0.0003703703703703705 0.0003703703703703705 0.0003703703703703705 0.0003703703703703705 0.0003703703703703705 0.0003703703703703705 0.0003703703703703705 0.0003703703703703705 0.0003703703703703705 0.6077777777777779 0.1855555555555556 0.1188888888888889 0.04481481481481482 0.03740740740740742 0.0003703703703703705 0.0003703703703703705 0.0003703703703703705 0.0003703703703703705 0.0003703703703703705 0.0003703703703703705 0.0003703703703703705 0.0003703703703703705 0.0003703703703703705 0.0003703703703703705 0.0003703703703703705 0.0003703703703703705 0.0003703703703703705 0.0003703703703703705 0.0003703703703703705 0.6077777777777779 0.1855555555555556 0.1188888888888889 0.04481481481481482 0.03740740740740742 0.0003703703703703705 0.0003703703703703705 0.0003703703703703705 0.0003703703703703705 0.0003703703703703705 0.0003703703703703705 0.0003703703703703705 0.0003703703703703705 0.0003703703703703705 0.0003703703703703705 0.0003703703703703705 0.0003703703703703705 0.0003703703703703705 0.0003703703703703705 0.0003703703703703705 0.6077777777777779 0.1855555555555556 0.1188888888888889 0.04481481481481482 0.03740740740740742 0.0003703703703703705 0.0003703703703703705 0.0003703703703703705 0.0003703703703703705 0.0003703703703703705 0.0003703703703703705 0.0003703703703703705 0.0003703703703703705 0.0003703703703703705 0.0003703703703703705 0.0003703703703703705 0.0003703703703703705 0.0003703703703703705 0.0003703703703703705 0.0003703703703703705 0.6077777777777779 0.1855555555555556 0.1188888888888889 0.04481481481481482 0.03740740740740742 0.0003703703703703705 0.0003703703703703705 0.0003703703703703705 0.0003703703703703705 0.0003703703703703705 0.0003703703703703705 0.0003703703703703705 0.0003703703703703705 0.0003703703703703705 0.0003703703703703705 0.0003703703703703705 0.0003703703703703705 0.0003703703703703705 0.0003703703703703705 0.0003703703703703705 0.6077777777777779 0.1855555555555556 0.1188888888888889 0.04481481481481482 0.03740740740740742 0.0003703703703703705 0.0003703703703703705 0.0003703703703703705 0.0003703703703703705 0.0003703703703703705 0.0003703703703703705 0.0003703703703703705 0.0003703703703703705 0.0003703703703703705 0.0003703703703703705 0.0003703703703703705 0.0003703703703703705 0.0003703703703703705 0.0003703703703703705 0.0003703703703703705 0.6077777777777779 0.1855555555555556 0.1188888888888889 0.04481481481481482 0.03740740740740742 0.0003703703703703705 0.0003703703703703705 0.0003703703703703705 0.0003703703703703705 0.0003703703703703705 0.0003703703703703705 0.0003703703703703705 0.0003703703703703705 0.0003703703703703705 0.0003703703703703705 0.0003703703703703705 0.0003703703703703705 0.0003703703703703705 0.0003703703703703705 0.0003703703703703705 0.6077777777777779 0.1855555555555556 0.1188888888888889 0.04481481481481482 0.03740740740740742 0.0003703703703703705 0.0003703703703703705 0.0003703703703703705 0.0003703703703703705 0.0003703703703703705 0.0003703703703703705 0.0003703703703703705 0.0003703703703703705 0.0003703703703703705 0.0003703703703703705 0.0003703703703703705 0.0003703703703703705 0.0003703703703703705 0.0003703703703703705 0.0003703703703703705 0.6077777777777779 0.1855555555555556 0.1188888888888889 0.04481481481481482 0.03740740740740742 0.0003703703703703705 0.0003703703703703705 0.0003703703703703705 0.0003703703703703705 0.0003703703703703705 0.0003703703703703705 0.0003703703703703705 0.0003703703703703705 0.0003703703703703705 0.0003703703703703705 0.0003703703703703705 0.0003703703703703705 0.0003703703703703705 0.0003703703703703705 0.0003703703703703705 0.6077777777777779 0.1855555555555556 0.1188888888888889 0.04481481481481482 0.03740740740740742 0.0003703703703703705 0.0003703703703703705 0.0003703703703703705 0.0003703703703703705 0.0003703703703703705 0.0003703703703703705 0.0003703703703703705 0.0003703703703703705 0.0003703703703703705 0.0003703703703703705 0.0003703703703703705 0.0003703703703703705 0.0003703703703703705 0.0003703703703703705 0.0003703703703703705 0.6077777777777779 0.1855555555555556 0.1188888888888889 0.04481481481481482 0.03740740740740742 0.0003703703703703705 0.0003703703703703705 0.0003703703703703705 0.0003703703703703705 0.0003703703703703705 0.0003703703703703705 0.0003703703703703705 0.0003703703703703705 0.0003703703703703705 0.0003703703703703705 0.0003703703703703705 0.0003703703703703705 0.0003703703703703705 0.0003703703703703705 0.0003703703703703705 0.6077777777777779 0.1855555555555556 0.1188888888888889 0.04481481481481482 0.03740740740740742 0.0003703703703703705 0.0003703703703703705 0.0003703703703703705 0.0003703703703703705 0.0003703703703703705 0.0003703703703703705 0.0003703703703703705 0.0003703703703703705 0.0003703703703703705 0.0003703703703703705 0.0003703703703703705 0.0003703703703703705 0.0003703703703703705 0.0003703703703703705 0.0003703703703703705 0.6077777777777779 0.1855555555555556 0.1188888888888889 0.04481481481481482 0.03740740740740742 0.0003703703703703705 0.0003703703703703705 0.0003703703703703705 0.0003703703703703705 0.0003703703703703705 0.0003703703703703705 0.0003703703703703705 0.0003703703703703705 0.0003703703703703705 0.0003703703703703705 0.0003703703703703705 0.0003703703703703705 0.0003703703703703705 0.0003703703703703705 0.0003703703703703705 0.6077777777777779 0.1855555555555556 0.1188888888888889 0.04481481481481482 0.03740740740740742 0.0003703703703703705 0.0003703703703703705 0.0003703703703703705 0.0003703703703703705 0.0003703703703703705 0.0003703703703703705 0.0003703703703703705 0.0003703703703703705 0.0003703703703703705 0.0003703703703703705 0.0003703703703703705 0.0003703703703703705 0.0003703703703703705 0.0003703703703703705 0.0003703703703703705 0.6077777777777779 0.1855555555555556 0.1188888888888889 0.04481481481481482 0.03740740740740742 0.0003703703703703705 0.0003703703703703705 0.0003703703703703705 0.0003703703703703705 0.0003703703703703705 0.0003703703703703705 0.0003703703703703705 0.0003703703703703705 0.0003703703703703705 0.0003703703703703705 0.0003703703703703705 0.0003703703703703705 0.0003703703703703705 0.0003703703703703705 0.0003703703703703705 0.6077777777777779 0.1855555555555556 0.1188888888888889 0.04481481481481482 0.03740740740740742 0.0003703703703703705 0.0003703703703703705 0.0003703703703703705 0.0003703703703703705 0.0003703703703703705 0.0003703703703703705 0.0003703703703703705 0.0003703703703703705 0.0003703703703703705 0.0003703703703703705 0.0003703703703703705 0.0003703703703703705 0.0003703703703703705 0.0003703703703703705 0.0003703703703703705 0.6077777777777779 0.1855555555555556 0.1188888888888889 0.04481481481481482 0.03740740740740742 0.0003703703703703705 0.0003703703703703705 0.0003703703703703705 0.0003703703703703705 0.0003703703703703705 0.0003703703703703705 0.0003703703703703705 0.0003703703703703705 0.0003703703703703705 0.0003703703703703705 0.0003703703703703705 0.0003703703703703705 0.0003703703703703705 0.0003703703703703705 0.0003703703703703705 0.6077777777777779 0.1855555555555556 0.1188888888888889 0.04481481481481482 0.03740740740740742 0.0003703703703703705 0.0003703703703703705 0.0003703703703703705 0.0003703703703703705 0.0003703703703703705 0.0003703703703703705 0.0003703703703703705 0.0003703703703703705 0.0003703703703703705 0.0003703703703703705 0.0003703703703703705 0.0003703703703703705 0.0003703703703703705 0.0003703703703703705 0.0003703703703703705 0.3327008928571427 0.265736607142857 0.1943080357142856 0.1228794642857142 0.04698660714285712 0.02689732142857142 0.009040178571428567 0.0001116071428571428 0.0001116071428571428 0.0001116071428571428 0.0001116071428571428 0.0001116071428571428 0.0001116071428571428 0.0001116071428571428 0.0001116071428571428 0.0001116071428571428 0.0001116071428571428 0.0001116071428571428 0.0001116071428571428 0.0001116071428571428 0.3327008928571427 0.265736607142857 0.1943080357142856 0.1228794642857142 0.04698660714285712 0.02689732142857142 0.009040178571428567 0.0001116071428571428 0.0001116071428571428 0.0001116071428571428 0.0001116071428571428 0.0001116071428571428 0.0001116071428571428 0.0001116071428571428 0.0001116071428571428 0.0001116071428571428 0.0001116071428571428 0.0001116071428571428 0.0001116071428571428 0.0001116071428571428 0.3327008928571427 0.265736607142857 0.1943080357142856 0.1228794642857142 0.04698660714285712 0.02689732142857142 0.009040178571428567 0.0001116071428571428 0.0001116071428571428 0.0001116071428571428 0.0001116071428571428 0.0001116071428571428 0.0001116071428571428 0.0001116071428571428 0.0001116071428571428 0.0001116071428571428 0.0001116071428571428 0.0001116071428571428 0.0001116071428571428 0.0001116071428571428 0.3327008928571427 0.265736607142857 0.1943080357142856 0.1228794642857142 0.04698660714285712 0.02689732142857142 0.009040178571428567 0.0001116071428571428 0.0001116071428571428 0.0001116071428571428 0.0001116071428571428 0.0001116071428571428 0.0001116071428571428 0.0001116071428571428 0.0001116071428571428 0.0001116071428571428 0.0001116071428571428 0.0001116071428571428 0.0001116071428571428 0.0001116071428571428 0.3327008928571427 0.265736607142857 0.1943080357142856 0.1228794642857142 0.04698660714285712 0.02689732142857142 0.009040178571428567 0.0001116071428571428 0.0001116071428571428 0.0001116071428571428 0.0001116071428571428 0.0001116071428571428 0.0001116071428571428 0.0001116071428571428 0.0001116071428571428 0.0001116071428571428 0.0001116071428571428 0.0001116071428571428 0.0001116071428571428 0.0001116071428571428 0.3327008928571427 0.265736607142857 0.1943080357142856 0.1228794642857142 0.04698660714285712 0.02689732142857142 0.009040178571428567 0.0001116071428571428 0.0001116071428571428 0.0001116071428571428 0.0001116071428571428 0.0001116071428571428 0.0001116071428571428 0.0001116071428571428 0.0001116071428571428 0.0001116071428571428 0.0001116071428571428 0.0001116071428571428 0.0001116071428571428 0.0001116071428571428 0.3327008928571427 0.265736607142857 0.1943080357142856 0.1228794642857142 0.04698660714285712 0.02689732142857142 0.009040178571428567 0.0001116071428571428 0.0001116071428571428 0.0001116071428571428 0.0001116071428571428 0.0001116071428571428 0.0001116071428571428 0.0001116071428571428 0.0001116071428571428 0.0001116071428571428 0.0001116071428571428 0.0001116071428571428 0.0001116071428571428 0.0001116071428571428 0.3327008928571427 0.265736607142857 0.1943080357142856 0.1228794642857142 0.04698660714285712 0.02689732142857142 0.009040178571428567 0.0001116071428571428 0.0001116071428571428 0.0001116071428571428 0.0001116071428571428 0.0001116071428571428 0.0001116071428571428 0.0001116071428571428 0.0001116071428571428 0.0001116071428571428 0.0001116071428571428 0.0001116071428571428 0.0001116071428571428 0.0001116071428571428 0.3327008928571427 0.265736607142857 0.1943080357142856 0.1228794642857142 0.04698660714285712 0.02689732142857142 0.009040178571428567 0.0001116071428571428 0.0001116071428571428 0.0001116071428571428 0.0001116071428571428 0.0001116071428571428 0.0001116071428571428 0.0001116071428571428 0.0001116071428571428 0.0001116071428571428 0.0001116071428571428 0.0001116071428571428 0.0001116071428571428 0.0001116071428571428 0.3327008928571427 0.265736607142857 0.1943080357142856 0.1228794642857142 0.04698660714285712 0.02689732142857142 0.009040178571428567 0.0001116071428571428 0.0001116071428571428 0.0001116071428571428 0.0001116071428571428 0.0001116071428571428 0.0001116071428571428 0.0001116071428571428 0.0001116071428571428 0.0001116071428571428 0.0001116071428571428 0.0001116071428571428 0.0001116071428571428 0.0001116071428571428 0.3327008928571427 0.265736607142857 0.1943080357142856 0.1228794642857142 0.04698660714285712 0.02689732142857142 0.009040178571428567 0.0001116071428571428 0.0001116071428571428 0.0001116071428571428 0.0001116071428571428 0.0001116071428571428 0.0001116071428571428 0.0001116071428571428 0.0001116071428571428 0.0001116071428571428 0.0001116071428571428 0.0001116071428571428 0.0001116071428571428 0.0001116071428571428 0.3327008928571427 0.265736607142857 0.1943080357142856 0.1228794642857142 0.04698660714285712 0.02689732142857142 0.009040178571428567 0.0001116071428571428 0.0001116071428571428 0.0001116071428571428 0.0001116071428571428 0.0001116071428571428 0.0001116071428571428 0.0001116071428571428 0.0001116071428571428 0.0001116071428571428 0.0001116071428571428 0.0001116071428571428 0.0001116071428571428 0.0001116071428571428 0.3327008928571427 0.265736607142857 0.1943080357142856 0.1228794642857142 0.04698660714285712 0.02689732142857142 0.009040178571428567 0.0001116071428571428 0.0001116071428571428 0.0001116071428571428 0.0001116071428571428 0.0001116071428571428 0.0001116071428571428 0.0001116071428571428 0.0001116071428571428 0.0001116071428571428 0.0001116071428571428 0.0001116071428571428 0.0001116071428571428 0.0001116071428571428 0.3327008928571427 0.265736607142857 0.1943080357142856 0.1228794642857142 0.04698660714285712 0.02689732142857142 0.009040178571428567 0.0001116071428571428 0.0001116071428571428 0.0001116071428571428 0.0001116071428571428 0.0001116071428571428 0.0001116071428571428 0.0001116071428571428 0.0001116071428571428 0.0001116071428571428 0.0001116071428571428 0.0001116071428571428 0.0001116071428571428 0.0001116071428571428 0.3327008928571427 0.265736607142857 0.1943080357142856 0.1228794642857142 0.04698660714285712 0.02689732142857142 0.009040178571428567 0.0001116071428571428 0.0001116071428571428 0.0001116071428571428 0.0001116071428571428 0.0001116071428571428 0.0001116071428571428 0.0001116071428571428 0.0001116071428571428 0.0001116071428571428 0.0001116071428571428 0.0001116071428571428 0.0001116071428571428 0.0001116071428571428 0.3327008928571427 0.265736607142857 0.1943080357142856 0.1228794642857142 0.04698660714285712 0.02689732142857142 0.009040178571428567 0.0001116071428571428 0.0001116071428571428 0.0001116071428571428 0.0001116071428571428 0.0001116071428571428 0.0001116071428571428 0.0001116071428571428 0.0001116071428571428 0.0001116071428571428 0.0001116071428571428 0.0001116071428571428 0.0001116071428571428 0.0001116071428571428 0.3327008928571427 0.265736607142857 0.1943080357142856 0.1228794642857142 0.04698660714285712 0.02689732142857142 0.009040178571428567 0.0001116071428571428 0.0001116071428571428 0.0001116071428571428 0.0001116071428571428 0.0001116071428571428 0.0001116071428571428 0.0001116071428571428 0.0001116071428571428 0.0001116071428571428 0.0001116071428571428 0.0001116071428571428 0.0001116071428571428 0.0001116071428571428 0.3327008928571427 0.265736607142857 0.1943080357142856 0.1228794642857142 0.04698660714285712 0.02689732142857142 0.009040178571428567 0.0001116071428571428 0.0001116071428571428 0.0001116071428571428 0.0001116071428571428 0.0001116071428571428 0.0001116071428571428 0.0001116071428571428 0.0001116071428571428 0.0001116071428571428 0.0001116071428571428 0.0001116071428571428 0.0001116071428571428 0.0001116071428571428 0.3327008928571427 0.265736607142857 0.1943080357142856 0.1228794642857142 0.04698660714285712 0.02689732142857142 0.009040178571428567 0.0001116071428571428 0.0001116071428571428 0.0001116071428571428 0.0001116071428571428 0.0001116071428571428 0.0001116071428571428 0.0001116071428571428 0.0001116071428571428 0.0001116071428571428 0.0001116071428571428 0.0001116071428571428 0.0001116071428571428 0.0001116071428571428 0.3327008928571427 0.265736607142857 0.1943080357142856 0.1228794642857142 0.04698660714285712 0.02689732142857142 0.009040178571428567 0.0001116071428571428 0.0001116071428571428 0.0001116071428571428 0.0001116071428571428 0.0001116071428571428 0.0001116071428571428 0.0001116071428571428 0.0001116071428571428 0.0001116071428571428 0.0001116071428571428 0.0001116071428571428 0.0001116071428571428 0.0001116071428571428 0.1446768060836502 0.2245247148288973 0.2663498098859315 0.1750950570342205 0.1142585551330799 0.02300380228136882 0.038212927756654 0.00779467680608365 0.003992395437262358 0.0001901140684410646 0.0001901140684410646 0.0001901140684410646 0.0001901140684410646 0.0001901140684410646 0.0001901140684410646 0.0001901140684410646 0.0001901140684410646 0.0001901140684410646 0.0001901140684410646 0.0001901140684410646 0.1446768060836502 0.2245247148288973 0.2663498098859315 0.1750950570342205 0.1142585551330799 0.02300380228136882 0.038212927756654 0.00779467680608365 0.003992395437262358 0.0001901140684410646 0.0001901140684410646 0.0001901140684410646 0.0001901140684410646 0.0001901140684410646 0.0001901140684410646 0.0001901140684410646 0.0001901140684410646 0.0001901140684410646 0.0001901140684410646 0.0001901140684410646 0.1446768060836502 0.2245247148288973 0.2663498098859315 0.1750950570342205 0.1142585551330799 0.02300380228136882 0.038212927756654 0.00779467680608365 0.003992395437262358 0.0001901140684410646 0.0001901140684410646 0.0001901140684410646 0.0001901140684410646 0.0001901140684410646 0.0001901140684410646 0.0001901140684410646 0.0001901140684410646 0.0001901140684410646 0.0001901140684410646 0.0001901140684410646 0.1446768060836502 0.2245247148288973 0.2663498098859315 0.1750950570342205 0.1142585551330799 0.02300380228136882 0.038212927756654 0.00779467680608365 0.003992395437262358 0.0001901140684410646 0.0001901140684410646 0.0001901140684410646 0.0001901140684410646 0.0001901140684410646 0.0001901140684410646 0.0001901140684410646 0.0001901140684410646 0.0001901140684410646 0.0001901140684410646 0.0001901140684410646 0.1446768060836502 0.2245247148288973 0.2663498098859315 0.1750950570342205 0.1142585551330799 0.02300380228136882 0.038212927756654 0.00779467680608365 0.003992395437262358 0.0001901140684410646 0.0001901140684410646 0.0001901140684410646 0.0001901140684410646 0.0001901140684410646 0.0001901140684410646 0.0001901140684410646 0.0001901140684410646 0.0001901140684410646 0.0001901140684410646 0.0001901140684410646 0.1446768060836502 0.2245247148288973 0.2663498098859315 0.1750950570342205 0.1142585551330799 0.02300380228136882 0.038212927756654 0.00779467680608365 0.003992395437262358 0.0001901140684410646 0.0001901140684410646 0.0001901140684410646 0.0001901140684410646 0.0001901140684410646 0.0001901140684410646 0.0001901140684410646 0.0001901140684410646 0.0001901140684410646 0.0001901140684410646 0.0001901140684410646 0.1446768060836502 0.2245247148288973 0.2663498098859315 0.1750950570342205 0.1142585551330799 0.02300380228136882 0.038212927756654 0.00779467680608365 0.003992395437262358 0.0001901140684410646 0.0001901140684410646 0.0001901140684410646 0.0001901140684410646 0.0001901140684410646 0.0001901140684410646 0.0001901140684410646 0.0001901140684410646 0.0001901140684410646 0.0001901140684410646 0.0001901140684410646 0.1446768060836502 0.2245247148288973 0.2663498098859315 0.1750950570342205 0.1142585551330799 0.02300380228136882 0.038212927756654 0.00779467680608365 0.003992395437262358 0.0001901140684410646 0.0001901140684410646 0.0001901140684410646 0.0001901140684410646 0.0001901140684410646 0.0001901140684410646 0.0001901140684410646 0.0001901140684410646 0.0001901140684410646 0.0001901140684410646 0.0001901140684410646 0.1446768060836502 0.2245247148288973 0.2663498098859315 0.1750950570342205 0.1142585551330799 0.02300380228136882 0.038212927756654 0.00779467680608365 0.003992395437262358 0.0001901140684410646 0.0001901140684410646 0.0001901140684410646 0.0001901140684410646 0.0001901140684410646 0.0001901140684410646 0.0001901140684410646 0.0001901140684410646 0.0001901140684410646 0.0001901140684410646 0.0001901140684410646 0.1446768060836502 0.2245247148288973 0.2663498098859315 0.1750950570342205 0.1142585551330799 0.02300380228136882 0.038212927756654 0.00779467680608365 0.003992395437262358 0.0001901140684410646 0.0001901140684410646 0.0001901140684410646 0.0001901140684410646 0.0001901140684410646 0.0001901140684410646 0.0001901140684410646 0.0001901140684410646 0.0001901140684410646 0.0001901140684410646 0.0001901140684410646 0.1446768060836502 0.2245247148288973 0.2663498098859315 0.1750950570342205 0.1142585551330799 0.02300380228136882 0.038212927756654 0.00779467680608365 0.003992395437262358 0.0001901140684410646 0.0001901140684410646 0.0001901140684410646 0.0001901140684410646 0.0001901140684410646 0.0001901140684410646 0.0001901140684410646 0.0001901140684410646 0.0001901140684410646 0.0001901140684410646 0.0001901140684410646 0.1446768060836502 0.2245247148288973 0.2663498098859315 0.1750950570342205 0.1142585551330799 0.02300380228136882 0.038212927756654 0.00779467680608365 0.003992395437262358 0.0001901140684410646 0.0001901140684410646 0.0001901140684410646 0.0001901140684410646 0.0001901140684410646 0.0001901140684410646 0.0001901140684410646 0.0001901140684410646 0.0001901140684410646 0.0001901140684410646 0.0001901140684410646 0.1446768060836502 0.2245247148288973 0.2663498098859315 0.1750950570342205 0.1142585551330799 0.02300380228136882 0.038212927756654 0.00779467680608365 0.003992395437262358 0.0001901140684410646 0.0001901140684410646 0.0001901140684410646 0.0001901140684410646 0.0001901140684410646 0.0001901140684410646 0.0001901140684410646 0.0001901140684410646 0.0001901140684410646 0.0001901140684410646 0.0001901140684410646 0.1446768060836502 0.2245247148288973 0.2663498098859315 0.1750950570342205 0.1142585551330799 0.02300380228136882 0.038212927756654 0.00779467680608365 0.003992395437262358 0.0001901140684410646 0.0001901140684410646 0.0001901140684410646 0.0001901140684410646 0.0001901140684410646 0.0001901140684410646 0.0001901140684410646 0.0001901140684410646 0.0001901140684410646 0.0001901140684410646 0.0001901140684410646 0.1446768060836502 0.2245247148288973 0.2663498098859315 0.1750950570342205 0.1142585551330799 0.02300380228136882 0.038212927756654 0.00779467680608365 0.003992395437262358 0.0001901140684410646 0.0001901140684410646 0.0001901140684410646 0.0001901140684410646 0.0001901140684410646 0.0001901140684410646 0.0001901140684410646 0.0001901140684410646 0.0001901140684410646 0.0001901140684410646 0.0001901140684410646 0.1446768060836502 0.2245247148288973 0.2663498098859315 0.1750950570342205 0.1142585551330799 0.02300380228136882 0.038212927756654 0.00779467680608365 0.003992395437262358 0.0001901140684410646 0.0001901140684410646 0.0001901140684410646 0.0001901140684410646 0.0001901140684410646 0.0001901140684410646 0.0001901140684410646 0.0001901140684410646 0.0001901140684410646 0.0001901140684410646 0.0001901140684410646 0.1446768060836502 0.2245247148288973 0.2663498098859315 0.1750950570342205 0.1142585551330799 0.02300380228136882 0.038212927756654 0.00779467680608365 0.003992395437262358 0.0001901140684410646 0.0001901140684410646 0.0001901140684410646 0.0001901140684410646 0.0001901140684410646 0.0001901140684410646 0.0001901140684410646 0.0001901140684410646 0.0001901140684410646 0.0001901140684410646 0.0001901140684410646 0.1446768060836502 0.2245247148288973 0.2663498098859315 0.1750950570342205 0.1142585551330799 0.02300380228136882 0.038212927756654 0.00779467680608365 0.003992395437262358 0.0001901140684410646 0.0001901140684410646 0.0001901140684410646 0.0001901140684410646 0.0001901140684410646 0.0001901140684410646 0.0001901140684410646 0.0001901140684410646 0.0001901140684410646 0.0001901140684410646 0.0001901140684410646 0.1446768060836502 0.2245247148288973 0.2663498098859315 0.1750950570342205 0.1142585551330799 0.02300380228136882 0.038212927756654 0.00779467680608365 0.003992395437262358 0.0001901140684410646 0.0001901140684410646 0.0001901140684410646 0.0001901140684410646 0.0001901140684410646 0.0001901140684410646 0.0001901140684410646 0.0001901140684410646 0.0001901140684410646 0.0001901140684410646 0.0001901140684410646 0.1446768060836502 0.2245247148288973 0.2663498098859315 0.1750950570342205 0.1142585551330799 0.02300380228136882 0.038212927756654 0.00779467680608365 0.003992395437262358 0.0001901140684410646 0.0001901140684410646 0.0001901140684410646 0.0001901140684410646 0.0001901140684410646 0.0001901140684410646 0.0001901140684410646 0.0001901140684410646 0.0001901140684410646 0.0001901140684410646 0.0001901140684410646 0.1036206896551725 0.1450000000000001 0.1863793103448277 0.2070689655172415 0.1312068965517242 0.1312068965517242 0.05879310344827591 0.02431034482758622 0.003620689655172417 0.007068965517241384 0.0001724137931034484 0.0001724137931034484 0.0001724137931034484 0.0001724137931034484 0.0001724137931034484 0.0001724137931034484 0.0001724137931034484 0.0001724137931034484 0.0001724137931034484 0.0001724137931034484 0.1036206896551725 0.1450000000000001 0.1863793103448277 0.2070689655172415 0.1312068965517242 0.1312068965517242 0.05879310344827591 0.02431034482758622 0.003620689655172417 0.007068965517241384 0.0001724137931034484 0.0001724137931034484 0.0001724137931034484 0.0001724137931034484 0.0001724137931034484 0.0001724137931034484 0.0001724137931034484 0.0001724137931034484 0.0001724137931034484 0.0001724137931034484 0.1036206896551725 0.1450000000000001 0.1863793103448277 0.2070689655172415 0.1312068965517242 0.1312068965517242 0.05879310344827591 0.02431034482758622 0.003620689655172417 0.007068965517241384 0.0001724137931034484 0.0001724137931034484 0.0001724137931034484 0.0001724137931034484 0.0001724137931034484 0.0001724137931034484 0.0001724137931034484 0.0001724137931034484 0.0001724137931034484 0.0001724137931034484 0.1036206896551725 0.1450000000000001 0.1863793103448277 0.2070689655172415 0.1312068965517242 0.1312068965517242 0.05879310344827591 0.02431034482758622 0.003620689655172417 0.007068965517241384 0.0001724137931034484 0.0001724137931034484 0.0001724137931034484 0.0001724137931034484 0.0001724137931034484 0.0001724137931034484 0.0001724137931034484 0.0001724137931034484 0.0001724137931034484 0.0001724137931034484 0.1036206896551725 0.1450000000000001 0.1863793103448277 0.2070689655172415 0.1312068965517242 0.1312068965517242 0.05879310344827591 0.02431034482758622 0.003620689655172417 0.007068965517241384 0.0001724137931034484 0.0001724137931034484 0.0001724137931034484 0.0001724137931034484 0.0001724137931034484 0.0001724137931034484 0.0001724137931034484 0.0001724137931034484 0.0001724137931034484 0.0001724137931034484 0.1036206896551725 0.1450000000000001 0.1863793103448277 0.2070689655172415 0.1312068965517242 0.1312068965517242 0.05879310344827591 0.02431034482758622 0.003620689655172417 0.007068965517241384 0.0001724137931034484 0.0001724137931034484 0.0001724137931034484 0.0001724137931034484 0.0001724137931034484 0.0001724137931034484 0.0001724137931034484 0.0001724137931034484 0.0001724137931034484 0.0001724137931034484 0.1036206896551725 0.1450000000000001 0.1863793103448277 0.2070689655172415 0.1312068965517242 0.1312068965517242 0.05879310344827591 0.02431034482758622 0.003620689655172417 0.007068965517241384 0.0001724137931034484 0.0001724137931034484 0.0001724137931034484 0.0001724137931034484 0.0001724137931034484 0.0001724137931034484 0.0001724137931034484 0.0001724137931034484 0.0001724137931034484 0.0001724137931034484 0.1036206896551725 0.1450000000000001 0.1863793103448277 0.2070689655172415 0.1312068965517242 0.1312068965517242 0.05879310344827591 0.02431034482758622 0.003620689655172417 0.007068965517241384 0.0001724137931034484 0.0001724137931034484 0.0001724137931034484 0.0001724137931034484 0.0001724137931034484 0.0001724137931034484 0.0001724137931034484 0.0001724137931034484 0.0001724137931034484 0.0001724137931034484 0.1036206896551725 0.1450000000000001 0.1863793103448277 0.2070689655172415 0.1312068965517242 0.1312068965517242 0.05879310344827591 0.02431034482758622 0.003620689655172417 0.007068965517241384 0.0001724137931034484 0.0001724137931034484 0.0001724137931034484 0.0001724137931034484 0.0001724137931034484 0.0001724137931034484 0.0001724137931034484 0.0001724137931034484 0.0001724137931034484 0.0001724137931034484 0.1036206896551725 0.1450000000000001 0.1863793103448277 0.2070689655172415 0.1312068965517242 0.1312068965517242 0.05879310344827591 0.02431034482758622 0.003620689655172417 0.007068965517241384 0.0001724137931034484 0.0001724137931034484 0.0001724137931034484 0.0001724137931034484 0.0001724137931034484 0.0001724137931034484 0.0001724137931034484 0.0001724137931034484 0.0001724137931034484 0.0001724137931034484 0.1036206896551725 0.1450000000000001 0.1863793103448277 0.2070689655172415 0.1312068965517242 0.1312068965517242 0.05879310344827591 0.02431034482758622 0.003620689655172417 0.007068965517241384 0.0001724137931034484 0.0001724137931034484 0.0001724137931034484 0.0001724137931034484 0.0001724137931034484 0.0001724137931034484 0.0001724137931034484 0.0001724137931034484 0.0001724137931034484 0.0001724137931034484 0.1036206896551725 0.1450000000000001 0.1863793103448277 0.2070689655172415 0.1312068965517242 0.1312068965517242 0.05879310344827591 0.02431034482758622 0.003620689655172417 0.007068965517241384 0.0001724137931034484 0.0001724137931034484 0.0001724137931034484 0.0001724137931034484 0.0001724137931034484 0.0001724137931034484 0.0001724137931034484 0.0001724137931034484 0.0001724137931034484 0.0001724137931034484 0.1036206896551725 0.1450000000000001 0.1863793103448277 0.2070689655172415 0.1312068965517242 0.1312068965517242 0.05879310344827591 0.02431034482758622 0.003620689655172417 0.007068965517241384 0.0001724137931034484 0.0001724137931034484 0.0001724137931034484 0.0001724137931034484 0.0001724137931034484 0.0001724137931034484 0.0001724137931034484 0.0001724137931034484 0.0001724137931034484 0.0001724137931034484 0.1036206896551725 0.1450000000000001 0.1863793103448277 0.2070689655172415 0.1312068965517242 0.1312068965517242 0.05879310344827591 0.02431034482758622 0.003620689655172417 0.007068965517241384 0.0001724137931034484 0.0001724137931034484 0.0001724137931034484 0.0001724137931034484 0.0001724137931034484 0.0001724137931034484 0.0001724137931034484 0.0001724137931034484 0.0001724137931034484 0.0001724137931034484 0.1036206896551725 0.1450000000000001 0.1863793103448277 0.2070689655172415 0.1312068965517242 0.1312068965517242 0.05879310344827591 0.02431034482758622 0.003620689655172417 0.007068965517241384 0.0001724137931034484 0.0001724137931034484 0.0001724137931034484 0.0001724137931034484 0.0001724137931034484 0.0001724137931034484 0.0001724137931034484 0.0001724137931034484 0.0001724137931034484 0.0001724137931034484 0.1036206896551725 0.1450000000000001 0.1863793103448277 0.2070689655172415 0.1312068965517242 0.1312068965517242 0.05879310344827591 0.02431034482758622 0.003620689655172417 0.007068965517241384 0.0001724137931034484 0.0001724137931034484 0.0001724137931034484 0.0001724137931034484 0.0001724137931034484 0.0001724137931034484 0.0001724137931034484 0.0001724137931034484 0.0001724137931034484 0.0001724137931034484 0.1036206896551725 0.1450000000000001 0.1863793103448277 0.2070689655172415 0.1312068965517242 0.1312068965517242 0.05879310344827591 0.02431034482758622 0.003620689655172417 0.007068965517241384 0.0001724137931034484 0.0001724137931034484 0.0001724137931034484 0.0001724137931034484 0.0001724137931034484 0.0001724137931034484 0.0001724137931034484 0.0001724137931034484 0.0001724137931034484 0.0001724137931034484 0.1036206896551725 0.1450000000000001 0.1863793103448277 0.2070689655172415 0.1312068965517242 0.1312068965517242 0.05879310344827591 0.02431034482758622 0.003620689655172417 0.007068965517241384 0.0001724137931034484 0.0001724137931034484 0.0001724137931034484 0.0001724137931034484 0.0001724137931034484 0.0001724137931034484 0.0001724137931034484 0.0001724137931034484 0.0001724137931034484 0.0001724137931034484 0.1036206896551725 0.1450000000000001 0.1863793103448277 0.2070689655172415 0.1312068965517242 0.1312068965517242 0.05879310344827591 0.02431034482758622 0.003620689655172417 0.007068965517241384 0.0001724137931034484 0.0001724137931034484 0.0001724137931034484 0.0001724137931034484 0.0001724137931034484 0.0001724137931034484 0.0001724137931034484 0.0001724137931034484 0.0001724137931034484 0.0001724137931034484 0.1036206896551725 0.1450000000000001 0.1863793103448277 0.2070689655172415 0.1312068965517242 0.1312068965517242 0.05879310344827591 0.02431034482758622 0.003620689655172417 0.007068965517241384 0.0001724137931034484 0.0001724137931034484 0.0001724137931034484 0.0001724137931034484 0.0001724137931034484 0.0001724137931034484 0.0001724137931034484 0.0001724137931034484 0.0001724137931034484 0.0001724137931034484 0.0626736111111111 0.09739583333333331 0.1425347222222222 0.2015625 0.1876736111111111 0.1529513888888888 0.09045138888888887 0.03489583333333333 0.01059027777777777 0.0001736111111111111 0.01753472222222222 0.0001736111111111111 0.0001736111111111111 0.0001736111111111111 0.0001736111111111111 0.0001736111111111111 0.0001736111111111111 0.0001736111111111111 0.0001736111111111111 0.0001736111111111111 0.0626736111111111 0.09739583333333331 0.1425347222222222 0.2015625 0.1876736111111111 0.1529513888888888 0.09045138888888887 0.03489583333333333 0.01059027777777777 0.0001736111111111111 0.01753472222222222 0.0001736111111111111 0.0001736111111111111 0.0001736111111111111 0.0001736111111111111 0.0001736111111111111 0.0001736111111111111 0.0001736111111111111 0.0001736111111111111 0.0001736111111111111 0.0626736111111111 0.09739583333333331 0.1425347222222222 0.2015625 0.1876736111111111 0.1529513888888888 0.09045138888888887 0.03489583333333333 0.01059027777777777 0.0001736111111111111 0.01753472222222222 0.0001736111111111111 0.0001736111111111111 0.0001736111111111111 0.0001736111111111111 0.0001736111111111111 0.0001736111111111111 0.0001736111111111111 0.0001736111111111111 0.0001736111111111111 0.0626736111111111 0.09739583333333331 0.1425347222222222 0.2015625 0.1876736111111111 0.1529513888888888 0.09045138888888887 0.03489583333333333 0.01059027777777777 0.0001736111111111111 0.01753472222222222 0.0001736111111111111 0.0001736111111111111 0.0001736111111111111 0.0001736111111111111 0.0001736111111111111 0.0001736111111111111 0.0001736111111111111 0.0001736111111111111 0.0001736111111111111 0.0626736111111111 0.09739583333333331 0.1425347222222222 0.2015625 0.1876736111111111 0.1529513888888888 0.09045138888888887 0.03489583333333333 0.01059027777777777 0.0001736111111111111 0.01753472222222222 0.0001736111111111111 0.0001736111111111111 0.0001736111111111111 0.0001736111111111111 0.0001736111111111111 0.0001736111111111111 0.0001736111111111111 0.0001736111111111111 0.0001736111111111111 0.0626736111111111 0.09739583333333331 0.1425347222222222 0.2015625 0.1876736111111111 0.1529513888888888 0.09045138888888887 0.03489583333333333 0.01059027777777777 0.0001736111111111111 0.01753472222222222 0.0001736111111111111 0.0001736111111111111 0.0001736111111111111 0.0001736111111111111 0.0001736111111111111 0.0001736111111111111 0.0001736111111111111 0.0001736111111111111 0.0001736111111111111 0.0626736111111111 0.09739583333333331 0.1425347222222222 0.2015625 0.1876736111111111 0.1529513888888888 0.09045138888888887 0.03489583333333333 0.01059027777777777 0.0001736111111111111 0.01753472222222222 0.0001736111111111111 0.0001736111111111111 0.0001736111111111111 0.0001736111111111111 0.0001736111111111111 0.0001736111111111111 0.0001736111111111111 0.0001736111111111111 0.0001736111111111111 0.0626736111111111 0.09739583333333331 0.1425347222222222 0.2015625 0.1876736111111111 0.1529513888888888 0.09045138888888887 0.03489583333333333 0.01059027777777777 0.0001736111111111111 0.01753472222222222 0.0001736111111111111 0.0001736111111111111 0.0001736111111111111 0.0001736111111111111 0.0001736111111111111 0.0001736111111111111 0.0001736111111111111 0.0001736111111111111 0.0001736111111111111 0.0626736111111111 0.09739583333333331 0.1425347222222222 0.2015625 0.1876736111111111 0.1529513888888888 0.09045138888888887 0.03489583333333333 0.01059027777777777 0.0001736111111111111 0.01753472222222222 0.0001736111111111111 0.0001736111111111111 0.0001736111111111111 0.0001736111111111111 0.0001736111111111111 0.0001736111111111111 0.0001736111111111111 0.0001736111111111111 0.0001736111111111111 0.0626736111111111 0.09739583333333331 0.1425347222222222 0.2015625 0.1876736111111111 0.1529513888888888 0.09045138888888887 0.03489583333333333 0.01059027777777777 0.0001736111111111111 0.01753472222222222 0.0001736111111111111 0.0001736111111111111 0.0001736111111111111 0.0001736111111111111 0.0001736111111111111 0.0001736111111111111 0.0001736111111111111 0.0001736111111111111 0.0001736111111111111 0.0626736111111111 0.09739583333333331 0.1425347222222222 0.2015625 0.1876736111111111 0.1529513888888888 0.09045138888888887 0.03489583333333333 0.01059027777777777 0.0001736111111111111 0.01753472222222222 0.0001736111111111111 0.0001736111111111111 0.0001736111111111111 0.0001736111111111111 0.0001736111111111111 0.0001736111111111111 0.0001736111111111111 0.0001736111111111111 0.0001736111111111111 0.0626736111111111 0.09739583333333331 0.1425347222222222 0.2015625 0.1876736111111111 0.1529513888888888 0.09045138888888887 0.03489583333333333 0.01059027777777777 0.0001736111111111111 0.01753472222222222 0.0001736111111111111 0.0001736111111111111 0.0001736111111111111 0.0001736111111111111 0.0001736111111111111 0.0001736111111111111 0.0001736111111111111 0.0001736111111111111 0.0001736111111111111 0.0626736111111111 0.09739583333333331 0.1425347222222222 0.2015625 0.1876736111111111 0.1529513888888888 0.09045138888888887 0.03489583333333333 0.01059027777777777 0.0001736111111111111 0.01753472222222222 0.0001736111111111111 0.0001736111111111111 0.0001736111111111111 0.0001736111111111111 0.0001736111111111111 0.0001736111111111111 0.0001736111111111111 0.0001736111111111111 0.0001736111111111111 0.0626736111111111 0.09739583333333331 0.1425347222222222 0.2015625 0.1876736111111111 0.1529513888888888 0.09045138888888887 0.03489583333333333 0.01059027777777777 0.0001736111111111111 0.01753472222222222 0.0001736111111111111 0.0001736111111111111 0.0001736111111111111 0.0001736111111111111 0.0001736111111111111 0.0001736111111111111 0.0001736111111111111 0.0001736111111111111 0.0001736111111111111 0.0626736111111111 0.09739583333333331 0.1425347222222222 0.2015625 0.1876736111111111 0.1529513888888888 0.09045138888888887 0.03489583333333333 0.01059027777777777 0.0001736111111111111 0.01753472222222222 0.0001736111111111111 0.0001736111111111111 0.0001736111111111111 0.0001736111111111111 0.0001736111111111111 0.0001736111111111111 0.0001736111111111111 0.0001736111111111111 0.0001736111111111111 0.0626736111111111 0.09739583333333331 0.1425347222222222 0.2015625 0.1876736111111111 0.1529513888888888 0.09045138888888887 0.03489583333333333 0.01059027777777777 0.0001736111111111111 0.01753472222222222 0.0001736111111111111 0.0001736111111111111 0.0001736111111111111 0.0001736111111111111 0.0001736111111111111 0.0001736111111111111 0.0001736111111111111 0.0001736111111111111 0.0001736111111111111 0.0626736111111111 0.09739583333333331 0.1425347222222222 0.2015625 0.1876736111111111 0.1529513888888888 0.09045138888888887 0.03489583333333333 0.01059027777777777 0.0001736111111111111 0.01753472222222222 0.0001736111111111111 0.0001736111111111111 0.0001736111111111111 0.0001736111111111111 0.0001736111111111111 0.0001736111111111111 0.0001736111111111111 0.0001736111111111111 0.0001736111111111111 0.0626736111111111 0.09739583333333331 0.1425347222222222 0.2015625 0.1876736111111111 0.1529513888888888 0.09045138888888887 0.03489583333333333 0.01059027777777777 0.0001736111111111111 0.01753472222222222 0.0001736111111111111 0.0001736111111111111 0.0001736111111111111 0.0001736111111111111 0.0001736111111111111 0.0001736111111111111 0.0001736111111111111 0.0001736111111111111 0.0001736111111111111 0.0626736111111111 0.09739583333333331 0.1425347222222222 0.2015625 0.1876736111111111 0.1529513888888888 0.09045138888888887 0.03489583333333333 0.01059027777777777 0.0001736111111111111 0.01753472222222222 0.0001736111111111111 0.0001736111111111111 0.0001736111111111111 0.0001736111111111111 0.0001736111111111111 0.0001736111111111111 0.0001736111111111111 0.0001736111111111111 0.0001736111111111111 0.0626736111111111 0.09739583333333331 0.1425347222222222 0.2015625 0.1876736111111111 0.1529513888888888 0.09045138888888887 0.03489583333333333 0.01059027777777777 0.0001736111111111111 0.01753472222222222 0.0001736111111111111 0.0001736111111111111 0.0001736111111111111 0.0001736111111111111 0.0001736111111111111 0.0001736111111111111 0.0001736111111111111 0.0001736111111111111 0.0001736111111111111 0.01381278538812785 0.03664383561643836 0.1188356164383561 0.1622146118721461 0.1644977168949772 0.1644977168949772 0.1462328767123288 0.0982876712328767 0.04349315068493151 0.0252283105022831 0.02294520547945206 0.002397260273972603 0.0001141552511415525 0.0001141552511415525 0.0001141552511415525 0.0001141552511415525 0.0001141552511415525 0.0001141552511415525 0.0001141552511415525 0.0001141552511415525 0.01381278538812785 0.03664383561643836 0.1188356164383561 0.1622146118721461 0.1644977168949772 0.1644977168949772 0.1462328767123288 0.0982876712328767 0.04349315068493151 0.0252283105022831 0.02294520547945206 0.002397260273972603 0.0001141552511415525 0.0001141552511415525 0.0001141552511415525 0.0001141552511415525 0.0001141552511415525 0.0001141552511415525 0.0001141552511415525 0.0001141552511415525 0.01381278538812785 0.03664383561643836 0.1188356164383561 0.1622146118721461 0.1644977168949772 0.1644977168949772 0.1462328767123288 0.0982876712328767 0.04349315068493151 0.0252283105022831 0.02294520547945206 0.002397260273972603 0.0001141552511415525 0.0001141552511415525 0.0001141552511415525 0.0001141552511415525 0.0001141552511415525 0.0001141552511415525 0.0001141552511415525 0.0001141552511415525 0.01381278538812785 0.03664383561643836 0.1188356164383561 0.1622146118721461 0.1644977168949772 0.1644977168949772 0.1462328767123288 0.0982876712328767 0.04349315068493151 0.0252283105022831 0.02294520547945206 0.002397260273972603 0.0001141552511415525 0.0001141552511415525 0.0001141552511415525 0.0001141552511415525 0.0001141552511415525 0.0001141552511415525 0.0001141552511415525 0.0001141552511415525 0.01381278538812785 0.03664383561643836 0.1188356164383561 0.1622146118721461 0.1644977168949772 0.1644977168949772 0.1462328767123288 0.0982876712328767 0.04349315068493151 0.0252283105022831 0.02294520547945206 0.002397260273972603 0.0001141552511415525 0.0001141552511415525 0.0001141552511415525 0.0001141552511415525 0.0001141552511415525 0.0001141552511415525 0.0001141552511415525 0.0001141552511415525 0.01381278538812785 0.03664383561643836 0.1188356164383561 0.1622146118721461 0.1644977168949772 0.1644977168949772 0.1462328767123288 0.0982876712328767 0.04349315068493151 0.0252283105022831 0.02294520547945206 0.002397260273972603 0.0001141552511415525 0.0001141552511415525 0.0001141552511415525 0.0001141552511415525 0.0001141552511415525 0.0001141552511415525 0.0001141552511415525 0.0001141552511415525 0.01381278538812785 0.03664383561643836 0.1188356164383561 0.1622146118721461 0.1644977168949772 0.1644977168949772 0.1462328767123288 0.0982876712328767 0.04349315068493151 0.0252283105022831 0.02294520547945206 0.002397260273972603 0.0001141552511415525 0.0001141552511415525 0.0001141552511415525 0.0001141552511415525 0.0001141552511415525 0.0001141552511415525 0.0001141552511415525 0.0001141552511415525 0.01381278538812785 0.03664383561643836 0.1188356164383561 0.1622146118721461 0.1644977168949772 0.1644977168949772 0.1462328767123288 0.0982876712328767 0.04349315068493151 0.0252283105022831 0.02294520547945206 0.002397260273972603 0.0001141552511415525 0.0001141552511415525 0.0001141552511415525 0.0001141552511415525 0.0001141552511415525 0.0001141552511415525 0.0001141552511415525 0.0001141552511415525 0.01381278538812785 0.03664383561643836 0.1188356164383561 0.1622146118721461 0.1644977168949772 0.1644977168949772 0.1462328767123288 0.0982876712328767 0.04349315068493151 0.0252283105022831 0.02294520547945206 0.002397260273972603 0.0001141552511415525 0.0001141552511415525 0.0001141552511415525 0.0001141552511415525 0.0001141552511415525 0.0001141552511415525 0.0001141552511415525 0.0001141552511415525 0.01381278538812785 0.03664383561643836 0.1188356164383561 0.1622146118721461 0.1644977168949772 0.1644977168949772 0.1462328767123288 0.0982876712328767 0.04349315068493151 0.0252283105022831 0.02294520547945206 0.002397260273972603 0.0001141552511415525 0.0001141552511415525 0.0001141552511415525 0.0001141552511415525 0.0001141552511415525 0.0001141552511415525 0.0001141552511415525 0.0001141552511415525 0.01381278538812785 0.03664383561643836 0.1188356164383561 0.1622146118721461 0.1644977168949772 0.1644977168949772 0.1462328767123288 0.0982876712328767 0.04349315068493151 0.0252283105022831 0.02294520547945206 0.002397260273972603 0.0001141552511415525 0.0001141552511415525 0.0001141552511415525 0.0001141552511415525 0.0001141552511415525 0.0001141552511415525 0.0001141552511415525 0.0001141552511415525 0.01381278538812785 0.03664383561643836 0.1188356164383561 0.1622146118721461 0.1644977168949772 0.1644977168949772 0.1462328767123288 0.0982876712328767 0.04349315068493151 0.0252283105022831 0.02294520547945206 0.002397260273972603 0.0001141552511415525 0.0001141552511415525 0.0001141552511415525 0.0001141552511415525 0.0001141552511415525 0.0001141552511415525 0.0001141552511415525 0.0001141552511415525 0.01381278538812785 0.03664383561643836 0.1188356164383561 0.1622146118721461 0.1644977168949772 0.1644977168949772 0.1462328767123288 0.0982876712328767 0.04349315068493151 0.0252283105022831 0.02294520547945206 0.002397260273972603 0.0001141552511415525 0.0001141552511415525 0.0001141552511415525 0.0001141552511415525 0.0001141552511415525 0.0001141552511415525 0.0001141552511415525 0.0001141552511415525 0.01381278538812785 0.03664383561643836 0.1188356164383561 0.1622146118721461 0.1644977168949772 0.1644977168949772 0.1462328767123288 0.0982876712328767 0.04349315068493151 0.0252283105022831 0.02294520547945206 0.002397260273972603 0.0001141552511415525 0.0001141552511415525 0.0001141552511415525 0.0001141552511415525 0.0001141552511415525 0.0001141552511415525 0.0001141552511415525 0.0001141552511415525 0.01381278538812785 0.03664383561643836 0.1188356164383561 0.1622146118721461 0.1644977168949772 0.1644977168949772 0.1462328767123288 0.0982876712328767 0.04349315068493151 0.0252283105022831 0.02294520547945206 0.002397260273972603 0.0001141552511415525 0.0001141552511415525 0.0001141552511415525 0.0001141552511415525 0.0001141552511415525 0.0001141552511415525 0.0001141552511415525 0.0001141552511415525 0.01381278538812785 0.03664383561643836 0.1188356164383561 0.1622146118721461 0.1644977168949772 0.1644977168949772 0.1462328767123288 0.0982876712328767 0.04349315068493151 0.0252283105022831 0.02294520547945206 0.002397260273972603 0.0001141552511415525 0.0001141552511415525 0.0001141552511415525 0.0001141552511415525 0.0001141552511415525 0.0001141552511415525 0.0001141552511415525 0.0001141552511415525 0.01381278538812785 0.03664383561643836 0.1188356164383561 0.1622146118721461 0.1644977168949772 0.1644977168949772 0.1462328767123288 0.0982876712328767 0.04349315068493151 0.0252283105022831 0.02294520547945206 0.002397260273972603 0.0001141552511415525 0.0001141552511415525 0.0001141552511415525 0.0001141552511415525 0.0001141552511415525 0.0001141552511415525 0.0001141552511415525 0.0001141552511415525 0.01381278538812785 0.03664383561643836 0.1188356164383561 0.1622146118721461 0.1644977168949772 0.1644977168949772 0.1462328767123288 0.0982876712328767 0.04349315068493151 0.0252283105022831 0.02294520547945206 0.002397260273972603 0.0001141552511415525 0.0001141552511415525 0.0001141552511415525 0.0001141552511415525 0.0001141552511415525 0.0001141552511415525 0.0001141552511415525 0.0001141552511415525 0.01381278538812785 0.03664383561643836 0.1188356164383561 0.1622146118721461 0.1644977168949772 0.1644977168949772 0.1462328767123288 0.0982876712328767 0.04349315068493151 0.0252283105022831 0.02294520547945206 0.002397260273972603 0.0001141552511415525 0.0001141552511415525 0.0001141552511415525 0.0001141552511415525 0.0001141552511415525 0.0001141552511415525 0.0001141552511415525 0.0001141552511415525 0.01381278538812785 0.03664383561643836 0.1188356164383561 0.1622146118721461 0.1644977168949772 0.1644977168949772 0.1462328767123288 0.0982876712328767 0.04349315068493151 0.0252283105022831 0.02294520547945206 0.002397260273972603 0.0001141552511415525 0.0001141552511415525 0.0001141552511415525 0.0001141552511415525 0.0001141552511415525 0.0001141552511415525 0.0001141552511415525 0.0001141552511415525 0.0003906250000000002 0.04726562500000002 0.04726562500000002 0.07070312500000003 0.1332031250000001 0.1722656250000001 0.1722656250000001 0.1253906250000001 0.02382812500000001 0.1097656250000001 0.07070312500000003 0.008203125000000004 0.008203125000000004 0.008203125000000004 0.0003906250000000002 0.0003906250000000002 0.0003906250000000002 0.0003906250000000002 0.0003906250000000002 0.0003906250000000002 0.0003906250000000002 0.04726562500000002 0.04726562500000002 0.07070312500000003 0.1332031250000001 0.1722656250000001 0.1722656250000001 0.1253906250000001 0.02382812500000001 0.1097656250000001 0.07070312500000003 0.008203125000000004 0.008203125000000004 0.008203125000000004 0.0003906250000000002 0.0003906250000000002 0.0003906250000000002 0.0003906250000000002 0.0003906250000000002 0.0003906250000000002 0.0003906250000000002 0.04726562500000002 0.04726562500000002 0.07070312500000003 0.1332031250000001 0.1722656250000001 0.1722656250000001 0.1253906250000001 0.02382812500000001 0.1097656250000001 0.07070312500000003 0.008203125000000004 0.008203125000000004 0.008203125000000004 0.0003906250000000002 0.0003906250000000002 0.0003906250000000002 0.0003906250000000002 0.0003906250000000002 0.0003906250000000002 0.0003906250000000002 0.04726562500000002 0.04726562500000002 0.07070312500000003 0.1332031250000001 0.1722656250000001 0.1722656250000001 0.1253906250000001 0.02382812500000001 0.1097656250000001 0.07070312500000003 0.008203125000000004 0.008203125000000004 0.008203125000000004 0.0003906250000000002 0.0003906250000000002 0.0003906250000000002 0.0003906250000000002 0.0003906250000000002 0.0003906250000000002 0.0003906250000000002 0.04726562500000002 0.04726562500000002 0.07070312500000003 0.1332031250000001 0.1722656250000001 0.1722656250000001 0.1253906250000001 0.02382812500000001 0.1097656250000001 0.07070312500000003 0.008203125000000004 0.008203125000000004 0.008203125000000004 0.0003906250000000002 0.0003906250000000002 0.0003906250000000002 0.0003906250000000002 0.0003906250000000002 0.0003906250000000002 0.0003906250000000002 0.04726562500000002 0.04726562500000002 0.07070312500000003 0.1332031250000001 0.1722656250000001 0.1722656250000001 0.1253906250000001 0.02382812500000001 0.1097656250000001 0.07070312500000003 0.008203125000000004 0.008203125000000004 0.008203125000000004 0.0003906250000000002 0.0003906250000000002 0.0003906250000000002 0.0003906250000000002 0.0003906250000000002 0.0003906250000000002 0.0003906250000000002 0.04726562500000002 0.04726562500000002 0.07070312500000003 0.1332031250000001 0.1722656250000001 0.1722656250000001 0.1253906250000001 0.02382812500000001 0.1097656250000001 0.07070312500000003 0.008203125000000004 0.008203125000000004 0.008203125000000004 0.0003906250000000002 0.0003906250000000002 0.0003906250000000002 0.0003906250000000002 0.0003906250000000002 0.0003906250000000002 0.0003906250000000002 0.04726562500000002 0.04726562500000002 0.07070312500000003 0.1332031250000001 0.1722656250000001 0.1722656250000001 0.1253906250000001 0.02382812500000001 0.1097656250000001 0.07070312500000003 0.008203125000000004 0.008203125000000004 0.008203125000000004 0.0003906250000000002 0.0003906250000000002 0.0003906250000000002 0.0003906250000000002 0.0003906250000000002 0.0003906250000000002 0.0003906250000000002 0.04726562500000002 0.04726562500000002 0.07070312500000003 0.1332031250000001 0.1722656250000001 0.1722656250000001 0.1253906250000001 0.02382812500000001 0.1097656250000001 0.07070312500000003 0.008203125000000004 0.008203125000000004 0.008203125000000004 0.0003906250000000002 0.0003906250000000002 0.0003906250000000002 0.0003906250000000002 0.0003906250000000002 0.0003906250000000002 0.0003906250000000002 0.04726562500000002 0.04726562500000002 0.07070312500000003 0.1332031250000001 0.1722656250000001 0.1722656250000001 0.1253906250000001 0.02382812500000001 0.1097656250000001 0.07070312500000003 0.008203125000000004 0.008203125000000004 0.008203125000000004 0.0003906250000000002 0.0003906250000000002 0.0003906250000000002 0.0003906250000000002 0.0003906250000000002 0.0003906250000000002 0.0003906250000000002 0.04726562500000002 0.04726562500000002 0.07070312500000003 0.1332031250000001 0.1722656250000001 0.1722656250000001 0.1253906250000001 0.02382812500000001 0.1097656250000001 0.07070312500000003 0.008203125000000004 0.008203125000000004 0.008203125000000004 0.0003906250000000002 0.0003906250000000002 0.0003906250000000002 0.0003906250000000002 0.0003906250000000002 0.0003906250000000002 0.0003906250000000002 0.04726562500000002 0.04726562500000002 0.07070312500000003 0.1332031250000001 0.1722656250000001 0.1722656250000001 0.1253906250000001 0.02382812500000001 0.1097656250000001 0.07070312500000003 0.008203125000000004 0.008203125000000004 0.008203125000000004 0.0003906250000000002 0.0003906250000000002 0.0003906250000000002 0.0003906250000000002 0.0003906250000000002 0.0003906250000000002 0.0003906250000000002 0.04726562500000002 0.04726562500000002 0.07070312500000003 0.1332031250000001 0.1722656250000001 0.1722656250000001 0.1253906250000001 0.02382812500000001 0.1097656250000001 0.07070312500000003 0.008203125000000004 0.008203125000000004 0.008203125000000004 0.0003906250000000002 0.0003906250000000002 0.0003906250000000002 0.0003906250000000002 0.0003906250000000002 0.0003906250000000002 0.0003906250000000002 0.04726562500000002 0.04726562500000002 0.07070312500000003 0.1332031250000001 0.1722656250000001 0.1722656250000001 0.1253906250000001 0.02382812500000001 0.1097656250000001 0.07070312500000003 0.008203125000000004 0.008203125000000004 0.008203125000000004 0.0003906250000000002 0.0003906250000000002 0.0003906250000000002 0.0003906250000000002 0.0003906250000000002 0.0003906250000000002 0.0003906250000000002 0.04726562500000002 0.04726562500000002 0.07070312500000003 0.1332031250000001 0.1722656250000001 0.1722656250000001 0.1253906250000001 0.02382812500000001 0.1097656250000001 0.07070312500000003 0.008203125000000004 0.008203125000000004 0.008203125000000004 0.0003906250000000002 0.0003906250000000002 0.0003906250000000002 0.0003906250000000002 0.0003906250000000002 0.0003906250000000002 0.0003906250000000002 0.04726562500000002 0.04726562500000002 0.07070312500000003 0.1332031250000001 0.1722656250000001 0.1722656250000001 0.1253906250000001 0.02382812500000001 0.1097656250000001 0.07070312500000003 0.008203125000000004 0.008203125000000004 0.008203125000000004 0.0003906250000000002 0.0003906250000000002 0.0003906250000000002 0.0003906250000000002 0.0003906250000000002 0.0003906250000000002 0.0003906250000000002 0.04726562500000002 0.04726562500000002 0.07070312500000003 0.1332031250000001 0.1722656250000001 0.1722656250000001 0.1253906250000001 0.02382812500000001 0.1097656250000001 0.07070312500000003 0.008203125000000004 0.008203125000000004 0.008203125000000004 0.0003906250000000002 0.0003906250000000002 0.0003906250000000002 0.0003906250000000002 0.0003906250000000002 0.0003906250000000002 0.0003906250000000002 0.04726562500000002 0.04726562500000002 0.07070312500000003 0.1332031250000001 0.1722656250000001 0.1722656250000001 0.1253906250000001 0.02382812500000001 0.1097656250000001 0.07070312500000003 0.008203125000000004 0.008203125000000004 0.008203125000000004 0.0003906250000000002 0.0003906250000000002 0.0003906250000000002 0.0003906250000000002 0.0003906250000000002 0.0003906250000000002 0.0003906250000000002 0.04726562500000002 0.04726562500000002 0.07070312500000003 0.1332031250000001 0.1722656250000001 0.1722656250000001 0.1253906250000001 0.02382812500000001 0.1097656250000001 0.07070312500000003 0.008203125000000004 0.008203125000000004 0.008203125000000004 0.0003906250000000002 0.0003906250000000002 0.0003906250000000002 0.0003906250000000002 0.0003906250000000002 0.0003906250000000002 0.0003906250000000002 0.04726562500000002 0.04726562500000002 0.07070312500000003 0.1332031250000001 0.1722656250000001 0.1722656250000001 0.1253906250000001 0.02382812500000001 0.1097656250000001 0.07070312500000003 0.008203125000000004 0.008203125000000004 0.008203125000000004 0.0003906250000000002 0.0003906250000000002 0.0003906250000000002 0.0003906250000000002 0.0003906250000000002 0.0003906250000000002 0.0005617977528089889 0.0005617977528089889 0.02303370786516854 0.02303370786516854 0.1353932584269663 0.1803370786516854 0.1803370786516854 0.1129213483146068 0.09044943820224723 0.1353932584269663 0.09044943820224723 0.02303370786516854 0.0005617977528089889 0.0005617977528089889 0.0005617977528089889 0.0005617977528089889 0.0005617977528089889 0.0005617977528089889 0.0005617977528089889 0.0005617977528089889 0.0005617977528089889 0.0005617977528089889 0.02303370786516854 0.02303370786516854 0.1353932584269663 0.1803370786516854 0.1803370786516854 0.1129213483146068 0.09044943820224723 0.1353932584269663 0.09044943820224723 0.02303370786516854 0.0005617977528089889 0.0005617977528089889 0.0005617977528089889 0.0005617977528089889 0.0005617977528089889 0.0005617977528089889 0.0005617977528089889 0.0005617977528089889 0.0005617977528089889 0.0005617977528089889 0.02303370786516854 0.02303370786516854 0.1353932584269663 0.1803370786516854 0.1803370786516854 0.1129213483146068 0.09044943820224723 0.1353932584269663 0.09044943820224723 0.02303370786516854 0.0005617977528089889 0.0005617977528089889 0.0005617977528089889 0.0005617977528089889 0.0005617977528089889 0.0005617977528089889 0.0005617977528089889 0.0005617977528089889 0.0005617977528089889 0.0005617977528089889 0.02303370786516854 0.02303370786516854 0.1353932584269663 0.1803370786516854 0.1803370786516854 0.1129213483146068 0.09044943820224723 0.1353932584269663 0.09044943820224723 0.02303370786516854 0.0005617977528089889 0.0005617977528089889 0.0005617977528089889 0.0005617977528089889 0.0005617977528089889 0.0005617977528089889 0.0005617977528089889 0.0005617977528089889 0.0005617977528089889 0.0005617977528089889 0.02303370786516854 0.02303370786516854 0.1353932584269663 0.1803370786516854 0.1803370786516854 0.1129213483146068 0.09044943820224723 0.1353932584269663 0.09044943820224723 0.02303370786516854 0.0005617977528089889 0.0005617977528089889 0.0005617977528089889 0.0005617977528089889 0.0005617977528089889 0.0005617977528089889 0.0005617977528089889 0.0005617977528089889 0.0005617977528089889 0.0005617977528089889 0.02303370786516854 0.02303370786516854 0.1353932584269663 0.1803370786516854 0.1803370786516854 0.1129213483146068 0.09044943820224723 0.1353932584269663 0.09044943820224723 0.02303370786516854 0.0005617977528089889 0.0005617977528089889 0.0005617977528089889 0.0005617977528089889 0.0005617977528089889 0.0005617977528089889 0.0005617977528089889 0.0005617977528089889 0.0005617977528089889 0.0005617977528089889 0.02303370786516854 0.02303370786516854 0.1353932584269663 0.1803370786516854 0.1803370786516854 0.1129213483146068 0.09044943820224723 0.1353932584269663 0.09044943820224723 0.02303370786516854 0.0005617977528089889 0.0005617977528089889 0.0005617977528089889 0.0005617977528089889 0.0005617977528089889 0.0005617977528089889 0.0005617977528089889 0.0005617977528089889 0.0005617977528089889 0.0005617977528089889 0.02303370786516854 0.02303370786516854 0.1353932584269663 0.1803370786516854 0.1803370786516854 0.1129213483146068 0.09044943820224723 0.1353932584269663 0.09044943820224723 0.02303370786516854 0.0005617977528089889 0.0005617977528089889 0.0005617977528089889 0.0005617977528089889 0.0005617977528089889 0.0005617977528089889 0.0005617977528089889 0.0005617977528089889 0.0005617977528089889 0.0005617977528089889 0.02303370786516854 0.02303370786516854 0.1353932584269663 0.1803370786516854 0.1803370786516854 0.1129213483146068 0.09044943820224723 0.1353932584269663 0.09044943820224723 0.02303370786516854 0.0005617977528089889 0.0005617977528089889 0.0005617977528089889 0.0005617977528089889 0.0005617977528089889 0.0005617977528089889 0.0005617977528089889 0.0005617977528089889 0.0005617977528089889 0.0005617977528089889 0.02303370786516854 0.02303370786516854 0.1353932584269663 0.1803370786516854 0.1803370786516854 0.1129213483146068 0.09044943820224723 0.1353932584269663 0.09044943820224723 0.02303370786516854 0.0005617977528089889 0.0005617977528089889 0.0005617977528089889 0.0005617977528089889 0.0005617977528089889 0.0005617977528089889 0.0005617977528089889 0.0005617977528089889 0.0005617977528089889 0.0005617977528089889 0.02303370786516854 0.02303370786516854 0.1353932584269663 0.1803370786516854 0.1803370786516854 0.1129213483146068 0.09044943820224723 0.1353932584269663 0.09044943820224723 0.02303370786516854 0.0005617977528089889 0.0005617977528089889 0.0005617977528089889 0.0005617977528089889 0.0005617977528089889 0.0005617977528089889 0.0005617977528089889 0.0005617977528089889 0.0005617977528089889 0.0005617977528089889 0.02303370786516854 0.02303370786516854 0.1353932584269663 0.1803370786516854 0.1803370786516854 0.1129213483146068 0.09044943820224723 0.1353932584269663 0.09044943820224723 0.02303370786516854 0.0005617977528089889 0.0005617977528089889 0.0005617977528089889 0.0005617977528089889 0.0005617977528089889 0.0005617977528089889 0.0005617977528089889 0.0005617977528089889 0.0005617977528089889 0.0005617977528089889 0.02303370786516854 0.02303370786516854 0.1353932584269663 0.1803370786516854 0.1803370786516854 0.1129213483146068 0.09044943820224723 0.1353932584269663 0.09044943820224723 0.02303370786516854 0.0005617977528089889 0.0005617977528089889 0.0005617977528089889 0.0005617977528089889 0.0005617977528089889 0.0005617977528089889 0.0005617977528089889 0.0005617977528089889 0.0005617977528089889 0.0005617977528089889 0.02303370786516854 0.02303370786516854 0.1353932584269663 0.1803370786516854 0.1803370786516854 0.1129213483146068 0.09044943820224723 0.1353932584269663 0.09044943820224723 0.02303370786516854 0.0005617977528089889 0.0005617977528089889 0.0005617977528089889 0.0005617977528089889 0.0005617977528089889 0.0005617977528089889 0.0005617977528089889 0.0005617977528089889 0.0005617977528089889 0.0005617977528089889 0.02303370786516854 0.02303370786516854 0.1353932584269663 0.1803370786516854 0.1803370786516854 0.1129213483146068 0.09044943820224723 0.1353932584269663 0.09044943820224723 0.02303370786516854 0.0005617977528089889 0.0005617977528089889 0.0005617977528089889 0.0005617977528089889 0.0005617977528089889 0.0005617977528089889 0.0005617977528089889 0.0005617977528089889 0.0005617977528089889 0.0005617977528089889 0.02303370786516854 0.02303370786516854 0.1353932584269663 0.1803370786516854 0.1803370786516854 0.1129213483146068 0.09044943820224723 0.1353932584269663 0.09044943820224723 0.02303370786516854 0.0005617977528089889 0.0005617977528089889 0.0005617977528089889 0.0005617977528089889 0.0005617977528089889 0.0005617977528089889 0.0005617977528089889 0.0005617977528089889 0.0005617977528089889 0.0005617977528089889 0.02303370786516854 0.02303370786516854 0.1353932584269663 0.1803370786516854 0.1803370786516854 0.1129213483146068 0.09044943820224723 0.1353932584269663 0.09044943820224723 0.02303370786516854 0.0005617977528089889 0.0005617977528089889 0.0005617977528089889 0.0005617977528089889 0.0005617977528089889 0.0005617977528089889 0.0005617977528089889 0.0005617977528089889 0.0005617977528089889 0.0005617977528089889 0.02303370786516854 0.02303370786516854 0.1353932584269663 0.1803370786516854 0.1803370786516854 0.1129213483146068 0.09044943820224723 0.1353932584269663 0.09044943820224723 0.02303370786516854 0.0005617977528089889 0.0005617977528089889 0.0005617977528089889 0.0005617977528089889 0.0005617977528089889 0.0005617977528089889 0.0005617977528089889 0.0005617977528089889 0.0005617977528089889 0.0005617977528089889 0.02303370786516854 0.02303370786516854 0.1353932584269663 0.1803370786516854 0.1803370786516854 0.1129213483146068 0.09044943820224723 0.1353932584269663 0.09044943820224723 0.02303370786516854 0.0005617977528089889 0.0005617977528089889 0.0005617977528089889 0.0005617977528089889 0.0005617977528089889 0.0005617977528089889 0.0005617977528089889 0.0005617977528089889 0.0005617977528089889 0.0005617977528089889 0.02303370786516854 0.02303370786516854 0.1353932584269663 0.1803370786516854 0.1803370786516854 0.1129213483146068 0.09044943820224723 0.1353932584269663 0.09044943820224723 0.02303370786516854 0.0005617977528089889 0.0005617977528089889 0.0005617977528089889 0.0005617977528089889 0.0005617977528089889 0.0005617977528089889 0.0005617977528089889 0.0005617977528089889 0.0005617977528089889 0.0005617977528089889 0.01179775280898877 0.01179775280898877 0.101685393258427 0.07921348314606742 0.1129213483146068 0.1578651685393259 0.1353932584269663 0.1353932584269663 0.1915730337078652 0.03426966292134832 0.0005617977528089889 0.01179775280898877 0.0005617977528089889 0.01179775280898877 0.0005617977528089889 0.0005617977528089889 0.0005617977528089889 0.0005617977528089889 0.0005617977528089889 0.0005617977528089889 0.01179775280898877 0.01179775280898877 0.101685393258427 0.07921348314606742 0.1129213483146068 0.1578651685393259 0.1353932584269663 0.1353932584269663 0.1915730337078652 0.03426966292134832 0.0005617977528089889 0.01179775280898877 0.0005617977528089889 0.01179775280898877 0.0005617977528089889 0.0005617977528089889 0.0005617977528089889 0.0005617977528089889 0.0005617977528089889 0.0005617977528089889 0.01179775280898877 0.01179775280898877 0.101685393258427 0.07921348314606742 0.1129213483146068 0.1578651685393259 0.1353932584269663 0.1353932584269663 0.1915730337078652 0.03426966292134832 0.0005617977528089889 0.01179775280898877 0.0005617977528089889 0.01179775280898877 0.0005617977528089889 0.0005617977528089889 0.0005617977528089889 0.0005617977528089889 0.0005617977528089889 0.0005617977528089889 0.01179775280898877 0.01179775280898877 0.101685393258427 0.07921348314606742 0.1129213483146068 0.1578651685393259 0.1353932584269663 0.1353932584269663 0.1915730337078652 0.03426966292134832 0.0005617977528089889 0.01179775280898877 0.0005617977528089889 0.01179775280898877 0.0005617977528089889 0.0005617977528089889 0.0005617977528089889 0.0005617977528089889 0.0005617977528089889 0.0005617977528089889 0.01179775280898877 0.01179775280898877 0.101685393258427 0.07921348314606742 0.1129213483146068 0.1578651685393259 0.1353932584269663 0.1353932584269663 0.1915730337078652 0.03426966292134832 0.0005617977528089889 0.01179775280898877 0.0005617977528089889 0.01179775280898877 0.0005617977528089889 0.0005617977528089889 0.0005617977528089889 0.0005617977528089889 0.0005617977528089889 0.0005617977528089889 0.01179775280898877 0.01179775280898877 0.101685393258427 0.07921348314606742 0.1129213483146068 0.1578651685393259 0.1353932584269663 0.1353932584269663 0.1915730337078652 0.03426966292134832 0.0005617977528089889 0.01179775280898877 0.0005617977528089889 0.01179775280898877 0.0005617977528089889 0.0005617977528089889 0.0005617977528089889 0.0005617977528089889 0.0005617977528089889 0.0005617977528089889 0.01179775280898877 0.01179775280898877 0.101685393258427 0.07921348314606742 0.1129213483146068 0.1578651685393259 0.1353932584269663 0.1353932584269663 0.1915730337078652 0.03426966292134832 0.0005617977528089889 0.01179775280898877 0.0005617977528089889 0.01179775280898877 0.0005617977528089889 0.0005617977528089889 0.0005617977528089889 0.0005617977528089889 0.0005617977528089889 0.0005617977528089889 0.01179775280898877 0.01179775280898877 0.101685393258427 0.07921348314606742 0.1129213483146068 0.1578651685393259 0.1353932584269663 0.1353932584269663 0.1915730337078652 0.03426966292134832 0.0005617977528089889 0.01179775280898877 0.0005617977528089889 0.01179775280898877 0.0005617977528089889 0.0005617977528089889 0.0005617977528089889 0.0005617977528089889 0.0005617977528089889 0.0005617977528089889 0.01179775280898877 0.01179775280898877 0.101685393258427 0.07921348314606742 0.1129213483146068 0.1578651685393259 0.1353932584269663 0.1353932584269663 0.1915730337078652 0.03426966292134832 0.0005617977528089889 0.01179775280898877 0.0005617977528089889 0.01179775280898877 0.0005617977528089889 0.0005617977528089889 0.0005617977528089889 0.0005617977528089889 0.0005617977528089889 0.0005617977528089889 0.01179775280898877 0.01179775280898877 0.101685393258427 0.07921348314606742 0.1129213483146068 0.1578651685393259 0.1353932584269663 0.1353932584269663 0.1915730337078652 0.03426966292134832 0.0005617977528089889 0.01179775280898877 0.0005617977528089889 0.01179775280898877 0.0005617977528089889 0.0005617977528089889 0.0005617977528089889 0.0005617977528089889 0.0005617977528089889 0.0005617977528089889 0.01179775280898877 0.01179775280898877 0.101685393258427 0.07921348314606742 0.1129213483146068 0.1578651685393259 0.1353932584269663 0.1353932584269663 0.1915730337078652 0.03426966292134832 0.0005617977528089889 0.01179775280898877 0.0005617977528089889 0.01179775280898877 0.0005617977528089889 0.0005617977528089889 0.0005617977528089889 0.0005617977528089889 0.0005617977528089889 0.0005617977528089889 0.01179775280898877 0.01179775280898877 0.101685393258427 0.07921348314606742 0.1129213483146068 0.1578651685393259 0.1353932584269663 0.1353932584269663 0.1915730337078652 0.03426966292134832 0.0005617977528089889 0.01179775280898877 0.0005617977528089889 0.01179775280898877 0.0005617977528089889 0.0005617977528089889 0.0005617977528089889 0.0005617977528089889 0.0005617977528089889 0.0005617977528089889 0.01179775280898877 0.01179775280898877 0.101685393258427 0.07921348314606742 0.1129213483146068 0.1578651685393259 0.1353932584269663 0.1353932584269663 0.1915730337078652 0.03426966292134832 0.0005617977528089889 0.01179775280898877 0.0005617977528089889 0.01179775280898877 0.0005617977528089889 0.0005617977528089889 0.0005617977528089889 0.0005617977528089889 0.0005617977528089889 0.0005617977528089889 0.01179775280898877 0.01179775280898877 0.101685393258427 0.07921348314606742 0.1129213483146068 0.1578651685393259 0.1353932584269663 0.1353932584269663 0.1915730337078652 0.03426966292134832 0.0005617977528089889 0.01179775280898877 0.0005617977528089889 0.01179775280898877 