<?xml version="1.0" encoding="ISO-8859-1"?>
<!-- This network was created in GeNIe Academic, which can be used for educational and research purposes only -->
<smile version="1.0" id="Unnamed" numsamples="10000" discsamples="10000">
	<nodes>
		<cpt id="Winner">
			<state id="s1_below_0" />
			<state id="s2_0_up" />
			<probabilities>0.460510078157137 0.539489921842863</probabilities>
		</cpt>
		<cpt id="Visit_Bats">
			<state id="s01_below_25" />
			<state id="s02_25_27" />
			<state id="s03_27_29" />
			<state id="s04_29_31" />
			<state id="s05_31_34" />
			<state id="s06_34_36" />
			<state id="s07_36_38" />
			<state id="s08_38_40" />
			<state id="s09_40_42" />
			<state id="s10_42_45" />
			<state id="s11_45_47" />
			<state id="s12_47_49" />
			<state id="s13_49_51" />
			<state id="s14_51_53" />
			<state id="s15_53_56" />
			<state id="s16_56_58" />
			<state id="s17_58_60" />
			<state id="s18_60_62" />
			<state id="s19_62_64" />
			<state id="s20_64_up" />
			<parents>Winner</parents>
			<probabilities>4.464285714285713e-05 0.001830357142857142 0.01522321428571428 0.05808035714285713 0.1732589285714285 0.3196875 0.1723660714285714 0.1161160714285714 0.07147321428571428 0.03843749999999999 0.02058035714285714 0.002723214285714285 0.003616071428571428 4.464285714285713e-05 0.001830357142857142 4.464285714285713e-05 0.0009374999999999999 0.001830357142857142 0.0009374999999999999 0.0009374999999999999 0.0015625 0.009946646341463415 0.08083079268292682 0.1898246951219512 0.289672256097561 0.2812881097560975 0.0762576219512195 0.03281249999999999 0.01604420731707317 0.009184451219512195 0.006897865853658537 0.0015625 0.0008003048780487804 3.810975609756096e-05 0.0008003048780487804 0.0015625 3.810975609756096e-05 3.810975609756096e-05 3.810975609756096e-05 0.0008003048780487804</probabilities>
		</cpt>
		<cpt id="Visit_Hits">
			<state id="s01_below_1" />
			<state id="s02_1_2" />
			<state id="s03_2_3" />
			<state id="s04_3_4" />
			<state id="s05_4_5" />
			<state id="s06_5_6" />
			<state id="s07_6_7" />
			<state id="s08_7_8" />
			<state id="s09_8_9" />
			<state id="s10_9_10" />
			<state id="s11_10_11" />
			<state id="s12_11_12" />
			<state id="s13_12_14" />
			<state id="s14_14_15" />
			<state id="s15_15_16" />
			<state id="s16_16_17" />
			<state id="s17_17_18" />
			<state id="s18_18_19" />
			<state id="s19_19_20" />
			<state id="s20_20_21" />
			<state id="s21_21_22" />
			<state id="s22_22_23" />
			<state id="s23_23_24" />
			<state id="s24_24_25" />
			<state id="s25_25_26" />
			<state id="s26_26_up" />
			<parents>Winner</parents>
			<probabilities>3.434065934065935e-05 0.002712912087912088 0.003605769230769231 0.01789148351648352 0.03396291208791209 0.06699862637362637 0.08128434065934065 0.1134271978021978 0.1303914835164835 0.1178914835164835 0.1071771978021978 0.0821771978021978 0.05717719780219779 0.09557005494505494 0.0384271978021978 0.01521291208791209 0.01164148351648352 0.008070054945054944 0.00985576923076923 0.003605769230769231 0.001820054945054945 3.434065934065935e-05 3.434065934065935e-05 0.0009271978021978023 3.434065934065935e-05 3.434065934065935e-05 0.007651266416510319 0.01755980300187618 0.06024272983114446 0.08691955909943715 0.1059744371482177 0.1486573639774859 0.1303646810506567 0.1235049249530957 0.1074988273921201 0.07929760787992496 0.0617671200750469 0.02670614446529081 0.0183219981238274 0.0183219981238274 0.003078095684803002 0.003078095684803002 2.931519699812384e-05 0.0007915103189493434 2.931519699812384e-05 2.931519699812384e-05 2.931519699812384e-05 2.931519699812384e-05 2.931519699812384e-05 2.931519699812384e-05 2.931519699812384e-05 2.931519699812384e-05</probabilities>
		</cpt>
		<cpt id="Visit_Doubles">
			<state id="s1_below_1" />
			<state id="s2_1_2" />
			<state id="s3_2_3" />
			<state id="s4_3_4" />
			<state id="s5_4_5" />
			<state id="s6_5_6" />
			<state id="s7_6_7" />
			<state id="s8_7_up" />
			<parents>Winner</parents>
			<probabilities>0.3760044642857143 0.2545758928571428 0.1885044642857143 0.1143973214285714 0.03493303571428572 0.01975446428571428 0.009040178571428571 0.002790178571428571 0.590796493902439 0.2447599085365854 0.1151867378048781 0.03591844512195122 0.01076600609756098 0.002381859756097561 9.527439024390244e-05 9.527439024390244e-05</probabilities>
		</cpt>
		<cpt id="Visit_Triples">
			<state id="s1_below_1" />
			<state id="s2_1_2" />
			<state id="s3_2_3" />
			<state id="s4_3_up" />
			<parents>Winner</parents>
			<probabilities>0.8171875 0.1546875 0.02433035714285714 0.003794642857142857 0.8995807926829269 0.09165396341463415 0.0078125 0.0009527439024390244</probabilities>
		</cpt>
		<cpt id="Visit_Homeruns">
			<state id="s1_below_1" />
			<state id="s2_1_2" />
			<state id="s3_2_3" />
			<state id="s4_3_4" />
			<state id="s5_4_5" />
			<state id="s6_5_6" />
			<state id="s7_6_7" />
			<state id="s8_7_up" />
			<parents>Winner</parents>
			<probabilities>0.1733258928571428 0.32421875 0.2733258928571429 0.1510044642857143 0.05457589285714286 0.01707589285714286 0.00546875 0.001004464285714286 0.4078696646341464 0.3827172256097561 0.153296493902439 0.0465891768292683 0.006192835365853659 0.003144054878048781 9.527439024390244e-05 9.527439024390244e-05</probabilities>
		</cpt>
		<cpt id="Visit_RBI">
			<state id="s01_below_1" />
			<state id="s02_1_2" />
			<state id="s03_2_3" />
			<state id="s04_3_4" />
			<state id="s05_4_5" />
			<state id="s06_5_6" />
			<state id="s07_6_7" />
			<state id="s08_7_8" />
			<state id="s09_8_9" />
			<state id="s10_9_10" />
			<state id="s11_10_11" />
			<state id="s12_11_12" />
			<state id="s13_12_13" />
			<state id="s14_13_14" />
			<state id="s15_14_15" />
			<state id="s16_15_16" />
			<state id="s17_16_17" />
			<state id="s18_17_18" />
			<state id="s19_18_19" />
			<state id="s20_19_20" />
			<state id="s21_20_21" />
			<state id="s22_21_22" />
			<state id="s23_22_up" />
			<parents>Winner</parents>
			<probabilities>0.002717391304347827 0.01968167701863354 0.06164596273291927 0.1071816770186336 0.1232531055900621 0.1518245341614907 0.1214673913043478 0.1205745341614907 0.0830745341614907 0.05093167701863355 0.05361024844720498 0.04289596273291926 0.0250388198757764 0.01521739130434783 0.007181677018633541 0.004503105590062113 0.006288819875776399 0.001824534161490684 3.881987577639754e-05 3.881987577639754e-05 3.881987577639754e-05 0.0009316770186335406 3.881987577639754e-05 0.1151246023329799 0.2081124072110287 0.1936306998939555 0.1844843584305409 0.1219843584305408 0.08082582184517499 0.04728923647932132 0.02442338282078473 0.01222826086956522 0.006130699893955462 0.002319724284199364 0.002319724284199364 0.0007953340402969248 3.313891834570522e-05 3.313891834570522e-05 3.313891834570522e-05 3.313891834570522e-05 3.313891834570522e-05 3.313891834570522e-05 3.313891834570522e-05 3.313891834570522e-05 3.313891834570522e-05 3.313891834570522e-05</probabilities>
		</cpt>
		<cpt id="Home_bats">
			<state id="s01_below_26" />
			<state id="s02_26_28" />
			<state id="s03_28_30" />
			<state id="s04_30_32" />
			<state id="s05_32_34" />
			<state id="s06_34_36" />
			<state id="s07_36_38" />
			<state id="s08_38_40" />
			<state id="s09_40_42" />
			<state id="s10_42_44" />
			<state id="s11_44_46" />
			<state id="s12_46_48" />
			<state id="s13_48_50" />
			<state id="s14_50_52" />
			<state id="s15_52_54" />
			<state id="s16_54_56" />
			<state id="s17_56_58" />
			<state id="s18_58_60" />
			<state id="s19_60_62" />
			<state id="s20_62_up" />
			<parents>Winner</parents>
			<probabilities>0.003616071428571428 0.03040178571428571 0.1562946428571428 0.2179017857142857 0.2839732142857143 0.1652232142857143 0.07147321428571428 0.03933035714285713 0.01075892857142857 0.007187499999999999 0.004508928571428571 0.001830357142857142 0.0009374999999999999 0.0009374999999999999 0.001830357142857142 0.0009374999999999999 0.001830357142857142 4.464285714285713e-05 4.464285714285713e-05 0.0009374999999999999 0.01299542682926829 0.07320884146341462 0.1623856707317073 0.2302210365853658 0.2027820121951219 0.1425685975609756 0.08769054878048779 0.0450076219512195 0.02061737804878049 0.006897865853658537 0.005373475609756097 0.004611280487804878 0.0015625 0.0008003048780487804 3.810975609756096e-05 0.0015625 0.0008003048780487804 3.810975609756096e-05 3.810975609756096e-05 0.0008003048780487804</probabilities>
		</cpt>
		<cpt id="Home_Hits">
			<state id="s01_below_1" />
			<state id="s02_1_2" />
			<state id="s03_2_3" />
			<state id="s04_3_4" />
			<state id="s05_4_5" />
			<state id="s06_5_6" />
			<state id="s07_6_7" />
			<state id="s08_7_8" />
			<state id="s09_8_9" />
			<state id="s10_9_10" />
			<state id="s11_10_11" />
			<state id="s12_11_12" />
			<state id="s13_12_14" />
			<state id="s14_14_15" />
			<state id="s15_15_16" />
			<state id="s16_16_17" />
			<state id="s17_17_18" />
			<state id="s18_18_19" />
			<state id="s19_19_20" />
			<state id="s20_20_21" />
			<state id="s21_21_22" />
			<state id="s22_22_23" />
			<state id="s23_23_24" />
			<state id="s24_24_25" />
			<state id="s25_25_26" />
			<state id="s26_26_up" />
			<parents>Winner</parents>
			<probabilities>0.007177197802197802 0.02057005494505494 0.0509271978021978 0.09557005494505494 0.1009271978021978 0.1321771978021978 0.1643200549450549 0.1473557692307692 0.1027129120879121 0.05807005494505494 0.04824862637362638 0.02949862637362637 0.0196771978021978 0.01610576923076923 0.004498626373626373 0.0009271978021978023 0.0009271978021978023 3.434065934065935e-05 3.434065934065935e-05 3.434065934065935e-05 3.434065934065935e-05 3.434065934065935e-05 3.434065934065935e-05 3.434065934065935e-05 3.434065934065935e-05 3.434065934065935e-05 0.0007915103189493434 0.002315900562851782 0.004602485928705441 0.01679760787992495 0.04423663227016886 0.07091346153846154 0.08844394934333959 0.1257915103189494 0.1196939493433396 0.1242671200750469 0.121218339587242 0.0732000469043152 0.065578095684803 0.08463297373358349 0.02213297373358349 0.01527321763602252 0.007651266416510319 0.006889071294559099 0.001553705440900563 0.0007915103189493434 2.931519699812384e-05 0.001553705440900563 0.0007915103189493434 2.931519699812384e-05 2.931519699812384e-05 0.0007915103189493434</probabilities>
		</cpt>
		<cpt id="Home_Doubles">
			<state id="s1_below_1" />
			<state id="s2_1_2" />
			<state id="s3_2_3" />
			<state id="s4_3_4" />
			<state id="s5_4_5" />
			<state id="s6_5_6" />
			<state id="s7_6_7" />
			<state id="s8_7_up" />
			<parents>Winner</parents>
			<probabilities>0.6072544642857143 0.2206473214285714 0.1170758928571429 0.04029017857142857 0.01350446428571428 0.0001116071428571429 0.001004464285714286 0.0001116071428571429 0.4063452743902439 0.2638147865853659 0.1860708841463415 0.08546112804878049 0.03820503048780488 0.01610137195121951 0.003144054878048781 0.000857469512195122</probabilities>
		</cpt>
		<cpt id="Home_Triples">
			<state id="s1_below_1" />
			<state id="s2_1_2" />
			<state id="s3_2_3" />
			<state id="s4_3_up" />
			<parents>Winner</parents>
			<probabilities>0.8948660714285714 0.09933035714285714 0.0046875 0.001116071428571429 0.8088795731707318 0.1655868902439024 0.02153201219512195 0.004001524390243903</probabilities>
		</cpt>
		<cpt id="Home_Homeruns">
			<state id="s1_below_1" />
			<state id="s2_1_2" />
			<state id="s3_2_3" />
			<state id="s4_3_4" />
			<state id="s5_4_5" />
			<state id="s6_5_6" />
			<state id="s7_6_7" />
			<state id="s8_7_up" />
			<parents>Winner</parents>
			<probabilities>0.4224330357142857 0.3635044642857143 0.1447544642857143 0.05814732142857143 0.008147321428571429 0.001897321428571429 0.001004464285714286 0.0001116071428571429 0.1769245426829268 0.3438452743902439 0.2668635670731707 0.1342416158536585 0.05878429878048781 0.01305259146341464 0.00390625 0.002381859756097561</probabilities>
		</cpt>
		<cpt id="Home_RBI">
			<state id="s01_below_1" />
			<state id="s02_1_2" />
			<state id="s03_2_3" />
			<state id="s04_3_4" />
			<state id="s05_4_5" />
			<state id="s06_5_6" />
			<state id="s07_6_7" />
			<state id="s08_7_8" />
			<state id="s09_8_9" />
			<state id="s10_9_10" />
			<state id="s11_10_11" />
			<state id="s12_11_12" />
			<state id="s13_12_13" />
			<state id="s14_13_14" />
			<state id="s15_14_15" />
			<state id="s16_15_16" />
			<state id="s17_16_17" />
			<state id="s18_17_18" />
			<state id="s19_18_19" />
			<state id="s20_19_20" />
			<state id="s21_20_21" />
			<state id="s22_21_22" />
			<state id="s23_22_up" />
			<parents>Winner</parents>
			<probabilities>0.1259316770186336 0.2071816770186336 0.1920031055900621 0.1768245341614907 0.128610248447205 0.07414596273291926 0.04468167701863355 0.02325310559006212 0.01789596273291926 0.002717391304347827 0.004503105590062113 0.0009316770186335406 0.0009316770186335406 3.881987577639754e-05 3.881987577639754e-05 3.881987577639754e-05 3.881987577639754e-05 3.881987577639754e-05 3.881987577639754e-05 3.881987577639754e-05 3.881987577639754e-05 3.881987577639754e-05 3.881987577639754e-05 3.313891834570522e-05 0.01832582184517498 0.06481972428419937 0.1067404559915165 0.1418014316012726 0.1395148462354189 0.1471367974549311 0.1059782608695652 0.0853989925768823 0.05719777306468718 0.0465270413573701 0.02823435843054083 0.01985021208907742 0.01375265111346766 0.006892895015906682 0.005368504772004243 0.006130699893955462 0.003844114528101804 0.0007953340402969248 0.0007953340402969248 3.313891834570522e-05 3.313891834570522e-05 0.0007953340402969248</probabilities>
		</cpt>
	</nodes>
	<extensions>
		<genie version="1.0" app="GeNIe 2.2.2601.0 ACADEMIC" name="GL2017ModifiedIan" faultnameformat="nodestate">
			<node id="Visit_Bats">
				<name>Visit Bats</name>
				<interior color="e5f6f7" />
				<outline color="000080" />
				<font color="000000" name="Arial" size="8" />
				<position>341 243 413 291</position>
			</node>
			<node id="Visit_Hits">
				<name>Visit Hits</name>
				<interior color="e5f6f7" />
				<outline color="000080" />
				<font color="000000" name="Arial" size="8" />
				<position>265 268 337 316</position>
			</node>
			<node id="Visit_Doubles">
				<name>Visit Doubles</name>
				<interior color="e5f6f7" />
				<outline color="000080" />
				<font color="000000" name="Arial" size="8" />
				<position>183 268 255 316</position>
			</node>
			<node id="Visit_Triples">
				<name>Visit Triples</name>
				<interior color="e5f6f7" />
				<outline color="000080" />
				<font color="000000" name="Arial" size="8" />
				<position>107 243 179 291</position>
			</node>
			<node id="Visit_Homeruns">
				<name>Visit Homeruns</name>
				<interior color="e5f6f7" />
				<outline color="000080" />
				<font color="000000" name="Arial" size="8" />
				<position>55 200 127 248</position>
			</node>
			<node id="Visit_RBI">
				<name>Visit RBI</name>
				<interior color="e5f6f7" />
				<outline color="000080" />
				<font color="000000" name="Arial" size="8" />
				<position>36 146 108 194</position>
			</node>
			<node id="Home_bats">
				<name>Home bats</name>
				<interior color="e5f6f7" />
				<outline color="000080" />
				<font color="000000" name="Arial" size="8" />
				<position>55 92 127 140</position>
			</node>
			<node id="Home_Hits">
				<name>Home Hits</name>
				<interior color="e5f6f7" />
				<outline color="000080" />
				<font color="000000" name="Arial" size="8" />
				<position>107 49 179 97</position>
			</node>
			<node id="Home_Doubles">
				<name>Home Doubles</name>
				<interior color="e5f6f7" />
				<outline color="000080" />
				<font color="000000" name="Arial" size="8" />
				<position>183 24 255 72</position>
			</node>
			<node id="Home_Triples">
				<name>Home Triples</name>
				<interior color="e5f6f7" />
				<outline color="000080" />
				<font color="000000" name="Arial" size="8" />
				<position>265 24 337 72</position>
			</node>
			<node id="Home_Homeruns">
				<name>Home Homeruns</name>
				<interior color="e5f6f7" />
				<outline color="000080" />
				<font color="000000" name="Arial" size="8" />
				<position>341 49 413 97</position>
			</node>
			<node id="Home_RBI">
				<name>Home RBI</name>
				<interior color="e5f6f7" />
				<outline color="000080" />
				<font color="000000" name="Arial" size="8" />
				<position>393 92 465 140</position>
			</node>
			<node id="Winner">
				<name>Winner</name>
				<interior color="ffff80" />
				<outline color="000080" />
				<font color="000000" name="Arial" size="8" />
				<position>224 146 296 194</position>
				<barchart active="true" />
			</node>
		</genie>
	</extensions>
</smile>
